{"type":"LSTM","options":{"inputSize":38,"inputRange":38,"hiddenLayers":[20,10],"outputSize":38,"decayRate":0.999,"smoothEps":1e-8,"regc":0.000001,"clipval":5,"maxPredictionLength":100,"dataFormatter":{"indexTable":{"z":0,"ł":1,"o":2,"ż":3,"ę":4," ":5,"m":6,"u":7,"p":8,"r":9,"y":10,"c":11,"j":12,"n":13,"i":14,"e":15,"d":16,"a":17,"O":18,"C":19,"h":20,"s":21,"t":22,"k":23,"K":24,"ó":25,"l":26,"L":27,"w":28,"b":29,"J":30,"B":31,"A":32,"x":33,"G":34,"stop-input":35,"start-output":36,"unrecognized":37},"characterTable":{"0":"z","1":"ł","2":"o","3":"ż","4":"ę","5":" ","6":"m","7":"u","8":"p","9":"r","10":"y","11":"c","12":"j","13":"n","14":"i","15":"e","16":"d","17":"a","18":"O","19":"C","20":"h","21":"s","22":"t","23":"k","24":"K","25":"ó","26":"l","27":"L","28":"w","29":"b","30":"J","31":"B","32":"A","33":"x","34":"G","35":null,"36":null,"37":null},"values":[{"input":"złożę mu propozycję nie do odrzucenia","output":"Ojciec Chrzestny"},{"input":"hakuna matata","output":"Król Lew"},{"input":"nazywam się bond james bond","output":"James Bond"},{"input":"uwielbiam zapach napalmu o poranku","output":"Czas Apokalipsy"},{"input":"nazywam się maximus decimus meridius","output":"Gladiator"}],"characters":["z","ł","o","ż","ę"," ","m","u","p","r","y","c","j","n","i","e","d","a","O","C","h","s","t","k","K","ó","l","L","w","b","J","B","A","x","G","stop-input","start-output","unrecognized"],"specialIndexes":[35,36,37]},"activation":"tanh"},"trainOpts":{"iterations":10000,"errorThresh":0.0125,"logPeriod":10,"learningRate":0.005,"callbackPeriod":10,"timeout":"Infinity"},"input":{"rows":39,"columns":38,"weights":[-0.15250568091869354,-0.13199488818645477,-0.47305363416671753,-1.1780750751495361,-0.5793601274490356,-0.27016526460647583,-0.6099716424942017,0.2790541350841522,-0.3599746823310852,-0.3436177968978882,0.0042589339427649975,0.801522970199585,-0.03511294350028038,0.6564176678657532,0.22073614597320557,-0.015791218727827072,-0.6844843029975891,-0.8560957312583923,-0.4392938017845154,0.19317996501922607,0.09509079158306122,-0.049966439604759216,-0.28157898783683777,-0.5860838294029236,-0.7821134328842163,0.46575382351875305,0.04532911255955696,-0.6843521595001221,-0.18853914737701416,-0.04543056711554527,0.0360998772084713,-0.5498263239860535,-0.3721857964992523,-0.6441754698753357,-0.6651888489723206,0.43831270933151245,0.38846203684806824,0.07403822243213654,0.5887269973754883,-1.0840944051742554,0.9901700615882874,-0.01850649155676365,1.2665274143218994,-0.7261057496070862,-0.1716645061969757,0.49657589197158813,-0.05472135543823242,0.6555613279342651,0.7307503819465637,-0.12546955049037933,0.4324053227901459,-1.4897119998931885,-1.147576093673706,0.7646147012710571,0.38853558897972107,0.46701833605766296,-0.0679703801870346,-0.014544067904353142,0.22389325499534607,0.757707417011261,0.06816665828227997,-0.3278399109840393,-0.19296476244926453,0.16946950554847717,-0.345016211271286,-0.19571448862552643,0.012693721801042557,-0.05708686634898186,1.2543655633926392,0.24112987518310547,1.341649055480957,-0.1379874348640442,0.6077955365180969,-0.30192068219184875,-0.18786917626857758,0.2801339328289032,1.794179081916809,1.1699893474578857,0.47625768184661865,-2.662031650543213,-0.20630712807178497,1.050174593925476,-0.31508153676986694,-0.3729003071784973,-1.5569323301315308,-2.854597330093384,-0.3854195773601532,1.9610828161239624,-0.05798355117440224,2.610103130340576,1.4649622440338135,-0.71763014793396,-0.6239221096038818,-0.6993180513381958,-2.5991973876953125,1.3325116634368896,-0.7422330975532532,0.96474689245224,0.2866126298904419,0.18860551714897156,-0.4002213776111603,-0.2614697217941284,1.9472038745880127,0.5947842597961426,-2.114086151123047,-0.2630307674407959,-3.1673262119293213,0.16167913377285004,1.4299200773239136,-1.3457276821136475,-0.08758553117513657,4.413684368133545,0.4257783591747284,-0.5964145660400391,0.1299334615468979,-0.1398889571428299,0.7640507817268372,-0.8862878680229187,0.5484799146652222,-0.818020761013031,0.3876560926437378,-0.11020854860544205,-0.9400737881660461,-0.7671526670455933,0.457592636346817,0.7938089370727539,0.3206256031990051,-0.228424072265625,-0.12409093976020813,-0.41195449233055115,0.11574744433164597,0.7655831575393677,-0.5154744982719421,-0.04309549555182457,0.21195390820503235,0.9891056418418884,0.3653371036052704,0.43099430203437805,-0.5996368527412415,-0.5340759754180908,0.6667048931121826,0.013082582503557205,-0.7199829816818237,0.4352591037750244,-0.26007241010665894,-0.03110138699412346,1.013365626335144,-0.4755108952522278,0.547283947467804,-0.14281953871250153,-0.07835464179515839,-0.9262509346008301,0.6353137493133545,-1.5806853771209717,0.49393534660339355,0.8758501410484314,0.4121856093406677,0.8060852885246277,-2.326826572418213,0.24143221974372864,0.7319583296775818,1.0158807039260864,-0.27359166741371155,-0.7541925311088562,-0.9756076335906982,-0.4990083575248718,-0.5169277191162109,0.5933469533920288,1.5640630722045898,0.9501551985740662,-0.43377313017845154,-1.3837225437164307,0.5240281820297241,-1.692389726638794,-3.1511311531066895,-0.7178152203559875,-1.0592204332351685,2.0921573638916016,-0.544213593006134,-0.18594437837600708,1.463639736175537,-0.8424282073974609,0.13201585412025452,-0.10235579311847687,-0.3162083029747009,1.5391523838043213,1.0464106798171997,0.05633581057190895,-0.7782803177833557,1.3153772354125977,0.4354397654533386,0.19887906312942505,0.3448467552661896,0.20271721482276917,-0.14646251499652863,0.40677687525749207,0.08620864152908325,-0.6510342955589294,0.32659438252449036,-0.23366746306419373,-0.060173891484737396,-0.8253291845321655,0.5099460482597351,0.27597254514694214,0.1670243740081787,0.1538788229227066,1.0765918493270874,0.4175940155982971,0.7511908411979675,-1.189503788948059,0.2143869698047638,-0.31427085399627686,-0.5313820242881775,0.6706832051277161,1.4079551696777344,-0.9602710604667664,0.4894329905509949,-0.5953726768493652,0.45757970213890076,0.6077081561088562,-0.7796938419342041,0.055210310965776443,-0.17896978557109833,1.0034774541854858,0.20529600977897644,-1.3740723133087158,-0.21347926557064056,-0.37516868114471436,0.07591044902801514,-1.1412848234176636,0.902846097946167,0.010429923422634602,0.16139443218708038,-0.03460881486535072,-0.7273426651954651,-0.7909618020057678,0.4694788157939911,-0.16157490015029907,0.23191483318805695,-0.3882359266281128,0.24591027200222015,-0.0972372442483902,-0.21659086644649506,0.33263447880744934,0.2316380888223648,0.43732598423957825,0.48647165298461914,-0.5313228964805603,0.21619364619255066,0.10090002417564392,-0.6993404626846313,-0.5218716859817505,0.1820671260356903,0.1266779899597168,-0.5062628388404846,-0.16802076995372772,0.35295674204826355,-0.5445303320884705,-0.11882741004228592,0.36938366293907166,-0.1392374336719513,0.672828733921051,0.1951012909412384,-0.6479047536849976,-0.7629006505012512,0.6526738405227661,-0.14821778237819672,0.3768098056316376,-0.6713629364967346,0.6832842230796814,-1.2614686489105225,-0.3549961745738983,0.31480124592781067,-0.18692193925380707,0.7471299767494202,0.06974145025014877,-1.315629005432129,-0.12971027195453644,-0.13712508976459503,0.7586275339126587,-0.2680071294307709,-1.6038283109664917,0.09400556981563568,-0.826798141002655,0.3476255238056183,0.26283490657806396,1.1147065162658691,-0.5804390907287598,-0.21234847605228424,-0.0843074768781662,-0.00302942655980587,0.0025971210561692715,-0.37259814143180847,-0.25837981700897217,0.9948417544364929,-0.31862762570381165,-0.18474803864955902,-0.6458973288536072,-0.6795377135276794,0.38808467984199524,-0.0450727641582489,-0.2700214087963104,0.479307621717453,0.9169241786003113,-0.2829627990722656,-0.534124493598938,0.649935781955719,-0.679101824760437,-0.35773590207099915,0.37113210558891296,0.5899950861930847,0.2409367859363556,-0.6148309111595154,-1.354973554611206,0.6978653073310852,1.816114902496338,0.11387506127357483,0.5076403021812439,0.9647780656814575,-0.12215416133403778,-0.0853445827960968,-0.24956437945365906,-0.25381219387054443,-0.010569515638053417,-0.4253805875778198,-0.3416900634765625,-0.1490139365196228,-0.0785178616642952,-0.13926628232002258,-0.08335140347480774,0.7832227349281311,0.6511988043785095,-0.33425119519233704,-0.1460341364145279,-1.4478126764297485,-0.2974115312099457,-0.478883296251297,0.12477006763219833,-0.8966192007064819,-0.32643574476242065,0.6723995804786682,-0.10808852314949036,0.5994902849197388,1.2658274173736572,0.5099591612815857,-1.4119374752044678,-1.3907777070999146,0.7147206664085388,-2.219076156616211,-0.9823927879333496,-0.0976242870092392,-0.6472079753875732,-1.5233646631240845,0.0368267260491848,0.7608162760734558,2.380197525024414,0.9920322895050049,-1.5535778999328613,-0.6594193577766418,-0.3931352496147156,-0.9960892200469971,-0.15586107969284058,0.8984261751174927,-1.0357681512832642,-0.48857980966567993,0.19246485829353333,-0.6026445031166077,0.7680352926254272,0.4069172739982605,-0.011790473945438862,-0.4842829406261444,0.2375517338514328,-1.241005778312683,-0.9498515725135803,-1.0533674955368042,0.05357561260461807,-0.40354543924331665,0.10921058058738708,-0.28360387682914734,-0.11352741718292236,2.289652109146118,-0.1767314225435257,-0.21726076304912567,-0.38978448510169983,1.2436983585357666,-0.2813514173030853,-0.34706437587738037,1.5348784923553467,-0.06874040514230728,0.7613011598587036,-0.595613956451416,-0.18566644191741943,0.8160539269447327,-0.94964599609375,-1.8031551837921143,-0.09734498709440231,-0.6373953819274902,0.6634394526481628,-0.6979973316192627,0.5034161806106567,-0.5672342777252197,-0.9015051126480103,0.3671499192714691,-0.436145544052124,-0.5254325866699219,0.30447307229042053,-0.2857072353363037,0.556462824344635,-0.1895708292722702,0.013532474637031555,1.2250478267669678,-0.10999350249767303,-1.2464958429336548,-0.4690585136413574,0.8764121532440186,1.7227481603622437,-0.001761532505042851,0.5464053153991699,1.26817786693573,-0.1299581080675125,0.19247040152549744,0.20310087502002716,0.5749213099479675,0.2535034716129303,-0.2267618179321289,0.18987353146076202,-0.5929989814758301,1.009463906288147,0.4255751669406891,-0.3563174307346344,1.1125375032424927,-0.6724744439125061,-0.7326493859291077,1.0632092952728271,-0.19593045115470886,0.27077871561050415,0.4329826235771179,-0.48409271240234375,0.13516704738140106,0.4270106554031372,0.5509952306747437,0.5976935029029846,0.030299246311187744,-0.9741951823234558,0.40903589129447937,0.9784197211265564,-0.6052223443984985,0.558850884437561,1.1916402578353882,-0.40212348103523254,0.023755399510264397,-0.20066508650779724,0.6167082786560059,-0.09778209030628204,0.6843553781509399,-0.5001859664916992,1.0472452640533447,-0.6128578782081604,0.3272152543067932,-1.4249464273452759,0.5444087386131287,0.41662847995758057,0.17542585730552673,-0.388068825006485,-1.7802234888076782,-0.7212005257606506,0.47069674730300903,2.340062141418457,0.9193942546844482,-0.25931939482688904,-0.06941918283700943,-0.35643866658210754,-0.1937192678451538,0.7765689492225647,0.7492011785507202,-0.8571533560752869,-0.3017680048942566,-0.3276754915714264,-0.5871216058731079,-0.07058157026767731,0.12943074107170105,-0.7537333369255066,1.1202540397644043,1.4054597616195679,-1.4547251462936401,-0.008745046332478523,-1.4735931158065796,-0.8853796720504761,-1.0103150606155396,-0.580636203289032,-0.6220969557762146,0.422171413898468,0.3827482759952545,-1.9839500188827515,0.18614405393600464,-0.7656424641609192,0.6922931671142578,-0.022463832050561905,0.2963361442089081,1.4951515197753906,-1.6642932891845703,-0.3765144646167755,0.2211562991142273,-0.45354706048965454,0.09117148071527481,0.062456950545310974,0.2261621206998825,-0.2655738294124603,-0.48828622698783875,-0.21628610789775848,0.1992070972919464,0.12717631459236145,0.36358627676963806,-0.688944399356842,-0.22436100244522095,-1.4343048334121704,-2.087541103363037,-0.5552752614021301,0.15146176517009735,1.0107921361923218,-0.13002745807170868,-0.02740754745900631,0.15501560270786285,-0.6102187633514404,-0.5418301224708557,0.09682992845773697,-1.73745858669281,0.5425256490707397,-0.412112832069397,-0.239341139793396,-1.1205980777740479,0.8225693106651306,2.2027711868286133,-0.2643035650253296,0.24728088080883026,-0.24056613445281982,-0.09869685769081116,1.2076187133789062,-0.5272831320762634,0.13681647181510925,-0.10771284252405167,0.01452677696943283,-1.250786542892456,1.1782833337783813,0.008545532822608948,0.16017088294029236,-1.436524748802185,-1.6306763887405396,0.19916321337223053,0.7119630575180054,0.35031792521476746,-0.33157649636268616,0.7052433490753174,-1.443073034286499,-0.8350039720535278,-0.5462258458137512,0.16253487765789032,0.8120207786560059,0.47122639417648315,0.6948432326316833,0.1927422434091568,-0.6242225766181946,-0.3341941833496094,-0.7313894629478455,-2.0003089904785156,0.07295183092355728,0.553612232208252,0.9980628490447998,0.2988732159137726,0.9635772705078125,0.1647357940673828,0.6177693605422974,0.9631109833717346,-0.869819700717926,-0.017857130616903305,-0.6078414916992188,-0.6974960565567017,-0.5200889110565186,-0.16370965540409088,-1.2736549377441406,-0.4054029583930969,-0.33545953035354614,0.005104457959532738,0.44213053584098816,0.4844670593738556,-0.7877952456474304,0.7512825727462769,0.28051620721817017,0.3644116520881653,-0.7730192542076111,1.2318429946899414,0.33357298374176025,-0.08482944220304489,-0.241657093167305,0.18931633234024048,-0.10433841496706009,-0.2804129719734192,-0.6218390464782715,-0.4204905927181244,-0.020018916577100754,-0.9367572665214539,0.22771979868412018,0.30754828453063965,-0.12010826915502548,0.25711652636528015,-0.8860169053077698,-0.04820990934967995,0.126559779047966,0.5579226016998291,-0.6280079483985901,0.36907345056533813,-1.4396263360977173,-0.06817326694726944,-0.45267772674560547,-0.028344150632619858,0.5315027832984924,-0.6385395526885986,-0.40749862790107727,0.07385431975126266,0.5155405402183533,1.606608510017395,0.3464455306529999,0.4221740961074829,-0.10267958045005798,-0.021559109911322594,-0.6015945076942444,-0.29599934816360474,-0.3422744572162628,0.12859691679477692,0.1680101752281189,0.459807425737381,-0.016410449519753456,-0.037076957523822784,-0.1604485958814621,0.6324092745780945,-0.135751873254776,-0.5612382292747498,0.23355314135551453,-0.1880171000957489,-0.8101728558540344,-0.001976034604012966,-0.015194891951978207,-0.46034273505210876,-0.08822669833898544,0.15095992386341095,-0.3336677551269531,1.7772046327590942,-0.19084134697914124,0.11583227664232254,0.1735038310289383,0.8599960207939148,0.45879146456718445,0.023379793390631676,0.8754438757896423,-0.34599819779396057,1.4831764698028564,0.4254556894302368,1.490720510482788,-1.221964716911316,-0.7249465584754944,-2.4203522205352783,-0.01735495589673519,-0.43534088134765625,2.2077815532684326,-0.8905033469200134,0.7355352640151978,-0.1614939570426941,0.4504314064979553,0.050420358777046204,-0.24993793666362762,-1.8699313402175903,1.0898444652557373,0.3503912091255188,-0.49458765983581543,-0.30174851417541504,-0.7151674628257751,0.7807360887527466,0.33687102794647217,0.1199118047952652,-0.7640609741210938,2.4088075160980225,1.8893275260925293,-0.7165234088897705,0.6685491800308228,0.9040167331695557,-0.05247625336050987,0.6422110795974731,-0.17162159085273743,0.6466888189315796,0.8693847060203552,-0.5945608019828796,0.27593153715133667,-0.3288305401802063,-0.45918750762939453,-0.09330711513757706,0.06490913778543472,-0.1739967316389084,-0.37552738189697266,-1.1577802896499634,-0.5085821747779846,0.2908892333507538,0.9185760617256165,0.007884754799306393,-0.3470977544784546,0.14207643270492554,-0.37110236287117004,-0.09660382568836212,-0.290142685174942,0.22276310622692108,0.5726805925369263,0.19390225410461426,-0.18107745051383972,-0.3906410038471222,-0.395878404378891,0.4733029901981354,0.3016691207885742,-0.12186414003372192,-0.1755358874797821,0.8483265042304993,0.8632314801216125,-0.10720483958721161,0.08010267466306686,1.5861809253692627,0.30270904302597046,0.15749254822731018,-1.9615459442138672,0.6425889730453491,-1.1138077974319458,0.43537813425064087,1.2100685834884644,-1.3625355958938599,-0.6126050353050232,-0.09547527879476547,0.35814929008483887,1.4071941375732422,-0.1792183816432953,-0.3311235010623932,0.33364471793174744,-0.018752245232462883,-0.4949098527431488,-0.32051098346710205,0.06671140342950821,-0.33755752444267273,1.3853063583374023,1.6113030910491943,0.8809569478034973,0.22273434698581696,-0.9410400986671448,0.04384961724281311,0.3534127175807953,-1.6402721405029297,0.9517481327056885,-0.2078256458044052,-0.5047615170478821,1.3309988975524902,-1.778344750404358,-0.0899372473359108,0.7101415991783142,1.2941551208496094,-1.638403296470642,0.6973698735237122,0.8365312814712524,-0.42538946866989136,-2.2515511512756348,-0.20584389567375183,-0.16991539299488068,-0.1456468552350998,-0.3479618728160858,-1.22544527053833,0.07682137936353683,-0.744307279586792,-0.2303800880908966,0.5015953183174133,0.2623317837715149,-0.24383945763111115,-0.16151082515716553,-1.0415936708450317,0.7306022047996521,-1.160212755203247,0.7648640871047974,0.169322207570076,1.5004225969314575,0.7519011497497559,0.5774134993553162,-1.1285603046417236,-0.13022907078266144,0.6540893316268921,1.7039152383804321,-1.4678560495376587,0.24947308003902435,-0.2806912958621979,-0.22965984046459198,0.3483901619911194,-1.7648801803588867,0.860871434211731,1.5677512884140015,-1.2923316955566406,-1.3032878637313843,1.8107997179031372,-0.17381766438484192,-0.8418688774108887,0.30041712522506714,-0.28965356945991516,0.05183124542236328,0.6443155407905579,1.103206753730774,0.4975319802761078,0.7784128189086914,-0.9547263383865356,-0.8232018351554871,-0.047867197543382645,0.24744556844234467,-0.3797789514064789,-1.4877111911773682,0.4360986053943634,0.7096928358078003,0.5669295191764832,0.006752918940037489,0.7497122287750244,-0.24574458599090576,0.8523887991905212,0.28527411818504333,0.6436067223548889,0.437775582075119,-1.3222688436508179,-0.4574393332004547,0.5762516856193542,-0.3740958273410797,0.4119354486465454,-0.12410853058099747,-0.6271020174026489,-0.1689041256904602,1.290521264076233,0.645970344543457,-0.21614524722099304,0.7006920576095581,0.9527172446250916,0.32851529121398926,1.1703829765319824,-0.9247155785560608,0.8030158281326294,-0.30812010169029236,-0.2811203598976135,0.2209528237581253,-0.8234286904335022,-1.4541064500808716,0.11168276518583298,0.26239070296287537,-0.24386028945446014,-0.5434693694114685,-0.7937285304069519,-0.2957407832145691,0.8957648277282715,1.2844804525375366,-0.5439444184303284,-0.14003749191761017,0.0979490652680397,0.1051710993051529,0.10139943659305573,-0.2653260827064514,-0.07604166865348816,-0.03649260103702545,0.09585122019052505,-0.6120907664299011,-0.7631154656410217,-0.3832748532295227,0.03055042028427124,0.08301059901714325,0.5347226858139038,-0.9991462230682373,1.6377716064453125,0.6644240021705627,-0.36912763118743896,-0.6419102549552917,0.9414582848548889,0.2706547975540161,0.28514182567596436,0.31037288904190063,0.49994274973869324,-0.17218753695487976,-0.04422543942928314,0.16245898604393005,0.09451669454574585,-0.10249970108270645,-0.33702796697616577,0.10764101892709732,-0.6575100421905518,-0.05450130254030228,-1.1343938112258911,-0.7444888949394226,-0.47404301166534424,1.4570480585098267,-0.25953611731529236,-0.2920091450214386,-0.2192515879869461,-0.2424076795578003,-0.23558929562568665,-0.1065884605050087,-0.2815089225769043,-0.002614605473354459,-0.017985019832849503,0.32444512844085693,0.10238033533096313,-0.1345628947019577,-0.14859163761138916,0.3987216651439667,-0.6053149104118347,-0.005691213998943567,1.0610935688018799,1.0441092252731323,-0.35559189319610596,-0.054250508546829224,2.1241164207458496,0.3434862196445465,0.5093692541122437,0.9652596712112427,0.40682175755500793,0.11326633393764496,-0.7513797283172607,0.34356072545051575,-0.38470950722694397,-0.18515603244304657,0.2156892567873001,0.7878395915031433,-0.8608132600784302,0.5300825834274292,-1.2947908639907837,0.15835124254226685,-0.8538952469825745,1.3410136699676514,-0.9111804366111755,0.9992877840995789,0.07680624723434448,-0.70989590883255,0.007695249281823635,0.31234002113342285,-0.8043702244758606,0.2022407054901123,0.6535804867744446,-0.5612537860870361,-0.3273715376853943,-0.4796742796897888,0.978114902973175,0.042385201901197433,0.07367007434368134,-0.18207493424415588,2.0026473999023438,1.6187961101531982,-0.13334181904792786,0.06415238231420517,1.6859177350997925,-1.4372819662094116,-1.081891417503357,2.426115036010742,0.24863964319229126,-0.04089264199137688,1.244140386581421,1.1037204265594482,0.3862988352775574,0.8802124261856079,-0.07624851167201996,-0.48553207516670227,0.3163020610809326,-2.1000776290893555,-2.364997148513794,-0.6679515242576599,0.9504871368408203,0.38958901166915894,1.094315528869629,-0.8199378848075867,-0.08279754966497421,0.6236111521720886,0.34871238470077515,-0.3342920243740082,1.0638978481292725,-0.7539764642715454,-0.31816089153289795,-0.17002198100090027,1.0099265575408936,-0.7597229480743408,2.2214739322662354,-0.3765656352043152,0.4128175675868988,0.729884147644043,1.5513525009155273,-0.1656743884086609,1.2702969312667847,0.6439515352249146,1.4602787494659424,1.8146846294403076,-0.8079020380973816,-0.39360085129737854,-1.9072426557540894,-1.8042621612548828,-0.7394227385520935,-0.04469055309891701,1.011916995048523,2.0558021068573,-2.0554728507995605,-0.42253589630126953,-0.37749752402305603,0.8586010932922363,-0.12270915508270264,-2.0503082275390625,-0.050584595650434494,-0.555051863193512,1.0776113271713257,0.48786404728889465,3.1996452808380127,-0.4989854693412781,0.41559702157974243,-2.1769676208496094,-0.4827274680137634,2.3697097301483154,-2.4550347328186035,-0.8918580412864685,1.3239425420761108,-0.5425258278846741,-0.26556849479675293,0.04677644371986389,-1.3178542852401733,0.5681543946266174,-0.36261558532714844,0.46302229166030884,-0.7508212327957153,2.4716906547546387,-0.7441942095756531,-0.08094386011362076,0.40547895431518555,-0.6803426742553711,-0.23230256140232086,-0.19831618666648865,-0.9095818996429443,-0.6810624003410339,0.22243140637874603,-0.9516304731369019,-0.8262357711791992,0.8019971251487732,-0.30003273487091064,0.3751004934310913,1.067062497138977,-1.0064215660095215,0.2720397114753723,-1.0284919738769531,0.7869040966033936,-0.5447160005569458,1.4818577766418457,0.21010880172252655,-0.6418567299842834,-0.4745422303676605,-0.2754288613796234,0.2591158449649811,0.3026929199695587,-0.5139932632446289,-0.11349751055240631,0.13257618248462677,-1.150615930557251,0.36814066767692566,0.24181289970874786,0.40669503808021545,-1.0190627574920654,-0.4675599932670593,0.06450299918651581,0.6658918857574463,0.992207407951355,0.513139009475708,-1.4964135885238647,-0.6959505081176758,-2.617053747177124,0.7841852903366089,-0.9004473686218262,0.7523110508918762,0.46278464794158936,-2.975749969482422,-2.1155972480773926,2.0290043354034424,-1.5293962955474854,2.18373441696167,0.39541199803352356,-2.2913379669189453,0.5385774374008179,-1.4903773069381714,-0.42905476689338684,1.0312222242355347,1.2087382078170776,-1.1335008144378662,0.8388327956199646,-1.764195203781128,-0.3295559883117676,1.0789906978607178,-0.4663746953010559,-2.3191471099853516,0.8845632672309875,-1.6710784435272217,-0.3265568017959595,-1.1284931898117065,-0.9659469127655029,0.4912305772304535,0.13402728736400604,1.2564679384231567,2.2019639015197754,0.4229370951652527,0.8462238907814026,0.8378376364707947,0.36360639333724976,-1.2207863330841064,-0.68342125415802,-1.0469781160354614,0.8051289916038513,0.18313415348529816,-0.7616416811943054,-1.4547039270401,-2.0882158279418945,1.2366868257522583,1.327992558479309,1.034955382347107,0.4903642237186432,-1.7662745714187622,-0.29970991611480713,-0.8712459206581116,-0.6822981834411621,0.6892339587211609,1.155558705329895,0.3737757205963135,1.0792086124420166,-0.07365155965089798,-0.22423851490020752,-0.9455360174179077,0.32488390803337097,0.06872474402189255,-0.4844665229320526,0.36451172828674316,-0.4652802050113678,-1.0677586793899536,0.39081239700317383,-0.5351446270942688,-0.164767786860466,-0.20592652261257172,1.1559628248214722,-0.9974642395973206,1.1245797872543335,0.8099014163017273,-0.2400306612253189,1.1217241287231445,-0.4328506886959076,1.7844617366790771,-0.09524866938591003,1.441767930984497,0.8883971571922302,-1.2200640439987183,-0.763336181640625,0.388538658618927,0.41936737298965454,1.2201861143112183,0.03498920053243637,-0.09545420855283737,-0.8932322263717651,0.02289118431508541,-0.8448086977005005,0.8510278463363647,-2.1396024227142334,-1.7456499338150024,0.3631855547428131,-0.3266952633857727,0.6357460618019104,0.5273877382278442,-0.5462642908096313,1.0457364320755005,0.5797526836395264,-0.27206745743751526,-0.18732506036758423,0.17050056159496307,-1.4820977449417114,1.3270049095153809,-0.15366314351558685,1.6563589572906494,-0.015391206368803978,0.11817570775747299,1.290644884109497,-0.033421169966459274,1.9024085998535156,0.5143402814865112,0.22416827082633972,2.451659679412842,-1.3559709787368774,-0.04013265669345856,0.3814425766468048,-1.7460293769836426,-0.7600181698799133,-0.48867067694664,0.4429744780063629,0.5026454329490662,-0.33662521839141846,-1.3459147214889526,0.520922064781189,1.8992825746536255,-0.19702956080436707,-1.5736088752746582,-0.0902303084731102,-2.847121477127075,-1.06682550907135,-0.7096612453460693,1.5385318994522095,0.4568168520927429,-0.44874125719070435,0.2575674057006836,0.5680489540100098,-0.7028425931930542,-0.7610021233558655,0.2525436580181122,-2.581583023071289,0.31797629594802856,1.4499425888061523,1.0007774829864502,0.5643589496612549,-0.686596155166626,1.772658348083496,-1.0038186311721802,-0.6780518889427185,1.623216986656189,2.6214218139648438,1.3754181861877441,1.1080502271652222,1.50568425655365,0.4983616769313812,1.335820198059082,0.9852580428123474,-0.8875377178192139,2.2550368309020996,-2.7455313205718994,-0.8879673480987549,1.3095418214797974,-0.7370190024375916,0.21329371631145477,-0.06924956291913986,0.6520414352416992,-1.1045206785202026,-1.215602159500122,0.8421319127082825,-0.27616268396377563,1.1349806785583496,-0.645907461643219,-0.9380285143852234,0.11191491782665253,0.24228090047836304,1.4090909957885742,1.978851556777954,-1.214076280593872,-0.12099357694387436,-0.5175586938858032,1.1776167154312134,-0.4442313015460968,0.5428344011306763,1.2178242206573486,0.8862916231155396,0.18593674898147583,0.5177405476570129,0.08380625396966934,0.18282774090766907,0.3866499066352844,-1.1390577554702759,0.3308018147945404,-1.5911598205566406,-1.811403751373291,0.42223578691482544,-0.4503647983074188,-2.3849689960479736,-1.333573341369629,-0.9993252754211426,-0.3467061519622803,2.5415520668029785,2.1887714862823486,1.1609742641448975,0.4709034562110901,0.663451075553894,0.4405631422996521,1.6952404975891113,-1.5838592052459717,-0.801430344581604,0.18892748653888702,0.9342300295829773,0.511500358581543,-1.6648916006088257,-1.7932976484298706,0.41685283184051514,0.7657472491264343,0.5037262439727783,-3.0032215118408203,2.617609977722168,1.6633470058441162,-1.3269537687301636,-1.5849013328552246,0.5418208241462708,-2.957946300506592,0.07344166189432144,1.9826146364212036,2.1202871799468994,0.3495468497276306,1.2841123342514038,0.6266198754310608,-0.5145941972732544,-0.25759658217430115,2.975064992904663,0.2605014741420746,0.29680001735687256,-2.6559996604919434,-0.18133027851581573,2.591461181640625,0.7789156436920166,1.1666969060897827,1.0900644063949585,-0.07578742504119873,-1.0096153020858765,0.4652248024940491,0.8832992315292358,1.0805954933166504,0.6463125348091125,-2.037736177444458,-0.1061311662197113,0.08177538961172104,-0.0894891545176506,0.7917391657829285,0.23877142369747162,-0.03140699490904808,0.29106786847114563,0.031087148934602737,0.2388463169336319,-0.6107938885688782,0.5017010569572449,-2.2143752574920654,1.0977317094802856,0.7035406231880188,-1.686029314994812,1.4898381233215332,0.8651725053787231,-0.061194851994514465,0.560350239276886,1.861616849899292,0.08035144954919815,0.22521282732486725,-0.441526859998703,-0.11522167921066284,1.4012724161148071,0.8112925887107849,-0.7435728907585144,0.08221764117479324,-2.113676071166992,0.12031739205121994,-1.0629007816314697,2.040828227996826,-0.8965128660202026,-2.1139421463012695,0.8962808847427368,1.050693392753601,-0.1736721694469452,-0.46457257866859436,0.6852577328681946,2.2082772254943848,-0.06441063433885574,0.8836038708686829,0.8533231019973755,-1.9171677827835083,-1.7662495374679565,0.4842880964279175,0.18964441120624542,2.421987771987915,1.2618083953857422,0.07508355379104614,-0.47591790556907654,0.10873109102249146,1.0960427522659302,-1.8696755170822144,-0.1493910253047943,0.32654133439064026,-1.3990978002548218,-0.9678196310997009,-0.11379951983690262,-0.6196641325950623,-1.0144789218902588,-0.23843611776828766,0.3891056776046753,0.34279605746269226,0.17061284184455872,-0.07964756339788437,1.5732171535491943,-1.1562796831130981,-0.35426050424575806,-0.7939854264259338,0.9159612655639648,1.108553409576416,0.4260980784893036,-0.6948270201683044,1.4782166481018066,-0.621135950088501,-0.4455118775367737,-0.8058798909187317,-0.5295834541320801,-1.198630452156067,-0.387477844953537,0.7634574174880981,1.470090627670288,-0.5004050135612488,-0.5314470529556274,-1.1490033864974976,-0.5596939325332642,-0.4963339567184448,-1.0894018411636353,0.48176610469818115,1.7499327659606934,0.36961182951927185,0.25674280524253845,-0.35316044092178345,-1.501230001449585,-1.2582862377166748,-0.7739080786705017,0.22485890984535217,0.26024332642555237,-0.8081137537956238,-0.9010075330734253,-0.5763644576072693,-0.5807948708534241,0.5456498265266418,1.7170186042785645,-0.21697130799293518,1.6289528608322144,-0.682115375995636,1.0973156690597534,1.0400168895721436,-0.6749969720840454,-1.1758384704589844,0.6981253027915955,-0.2578240931034088,-0.6797108054161072,-0.3567762076854706,-0.3401612937450409,-1.0614467859268188,0.6073405146598816,1.0295528173446655,1.3603113889694214,-0.6040483713150024,0.24502483010292053,-1.4787623882293701,-0.988569438457489,-0.4093368649482727,0.07317402213811874,0.02986898645758629,-0.06431730091571808,0.06477946043014526,-0.0644243061542511,-0.0634109154343605,0.044694844633340836,0.045940883457660675,-0.070906862616539,-0.011663468554615974,0.017980284988880157,-0.04719622805714607,0.026829540729522705,-0.04029708355665207,0.07296890765428543,-0.01788789965212345,-0.0000939724050113,0.00867084413766861,0.014938777312636375,0.0367710143327713,0.07688537240028381,0.03270338848233223,0.023972177878022194,-0.020467441529035568,0.07344644516706467,-0.04154914617538452,0.0606885589659214,-0.07314549386501312,-0.06807224452495575,0.0796140804886818,-0.03859876096248627,-0.04468316584825516,0.03918159753084183,-0.06587420403957367,0.03821001946926117,-0.007837658748030663,-0.07246700674295425,0.01892920769751072]},"hiddenLayers":[{"inputMatrix":{"rows":20,"columns":38,"weights":[-0.8266266584396362,-0.4352397918701172,0.27170994877815247,-0.29006654024124146,-0.48694589734077454,0.3113054037094116,-0.43710029125213623,-0.4719754755496979,0.24517224729061127,-0.6699365973472595,0.5198819637298584,0.2965964376926422,-0.5850234031677246,0.3261985778808594,0.4597574472427368,-0.1920294612646103,0.4105824828147888,-0.21458464860916138,0.6600267887115479,-0.673190176486969,0.3121429979801178,0.07883936166763306,-0.7600530982017517,-0.9161353707313538,0.35200023651123047,0.38871341943740845,-0.4647854268550873,-0.7722476124763489,0.4541652500629425,-0.6284079551696777,-0.7491461038589478,0.040402986109256744,-0.07283902168273926,0.6340517997741699,-0.3304269313812256,-1.0978952646255493,0.3250197172164917,0.2798953652381897,0.10050174593925476,0.013848875649273396,0.3862132430076599,-0.5584254860877991,-0.5808773636817932,0.7079835534095764,-0.3178170621395111,-0.5374355912208557,0.12798556685447693,-0.5715914368629456,-0.4583415687084198,0.28099024295806885,0.4266034662723541,0.7805022597312927,0.35555994510650635,-0.6023728251457214,0.335140198469162,-0.3770737051963806,0.20647196471691132,-0.239773690700531,0.4181484580039978,-0.4814009368419647,-0.3376803696155548,-0.4283487796783447,0.569635808467865,0.2504982650279999,-0.1119660958647728,0.11420739442110062,0.1645069420337677,-0.5500281453132629,-0.9544570446014404,-0.03555518016219139,-0.748931884765625,0.31036052107810974,-0.31762489676475525,-0.25005432963371277,-0.2782447636127472,0.4828318655490875,0.44433292746543884,0.6317654252052307,0.9754976630210876,-0.7879242897033691,0.1854909360408783,-0.6985886693000793,0.00515847560018301,-0.4302883446216583,-0.5340783596038818,-0.4448651969432831,0.042728062719106674,-0.0797315239906311,0.1934850811958313,0.2829054594039917,0.0514020137488842,-0.015937771648168564,-0.10074781626462936,1.1937988996505737,-1.2582851648330688,-0.13118404150009155,-0.10886021703481674,0.05028147995471954,0.10200411826372147,0.26493316888809204,-0.23870836198329926,-0.6564952731132507,-0.3608382046222687,-0.04120253771543503,-0.40693166851997375,0.005681062117218971,-0.5061740279197693,0.3718852996826172,-0.0012966975336894393,-0.785422682762146,0.7295535802841187,0.23225003480911255,-0.679602324962616,-0.849176824092865,0.9256405234336853,-0.1316356211900711,0.41156673431396484,0.16980595886707306,0.8457131385803223,-0.5188460946083069,-0.5367609858512878,0.149963840842247,-1.096947193145752,0.4660297930240631,0.17176781594753265,0.6860061883926392,-0.20032644271850586,-1.0772806406021118,-2.2948122024536133,-0.06303297728300095,0.15433575212955475,1.100813865661621,0.24714688956737518,-0.1347036361694336,0.8504858016967773,-0.25053974986076355,-0.2977905869483948,-0.46209776401519775,-0.4765956699848175,-0.1994720697402954,0.1394624263048172,0.5363813042640686,-0.3153136074542999,-0.26858270168304443,0.8032837510108948,-0.25217294692993164,-0.19998322427272797,-0.7365159392356873,1.2612229585647583,0.5381813049316406,0.24792730808258057,-0.6269272565841675,-0.15088407695293427,0.8537566661834717,0.06294908374547958,-0.21623879671096802,-0.7125976085662842,0.46104273200035095,-0.27353790402412415,-0.3939266502857208,-0.0003420864522922784,-0.5018723011016846,-1.603546380996704,0.17266593873500824,-0.41857609152793884,0.7793442010879517,0.3669743239879608,-1.0887750387191772,0.017709041014313698,-0.3653111457824707,-0.1990540474653244,0.1250443458557129,0.8781923651695251,-0.46323761343955994,-0.257896363735199,-0.27633562684059143,0.27409565448760986,0.09323528409004211,-0.4592669606208801,0.25085392594337463,0.11920507252216339,-0.19991673529148102,-0.8856687545776367,0.10810444504022598,-0.5066773295402527,-0.40770262479782104,-0.14920374751091003,0.07461686432361603,0.035537805408239365,0.24851182103157043,-0.24663645029067993,0.018914690241217613,-0.24311484396457672,-1.0679057836532593,-0.16391709446907043,-0.7960781455039978,-0.06587748974561691,-0.26147958636283875,-0.2640345096588135,-0.33628877997398376,-0.3424496650695801,0.21440476179122925,0.01657242514193058,0.3830086886882782,0.7554660439491272,-0.6324599981307983,-0.05868227407336235,-0.18754525482654572,-0.2097998559474945,-0.1039528101682663,0.881358802318573,0.48542869091033936,0.06601761281490326,-0.07565014064311981,-0.5486475229263306,-0.18782180547714233,-0.29156312346458435,0.2795250117778778,-0.19574718177318573,0.1545073688030243,-0.9090906381607056,-0.4418495297431946,0.2825602889060974,-0.3311273455619812,-0.5064955949783325,0.12834559381008148,-0.2860974669456482,-0.2455170750617981,0.4356271028518677,0.49811694025993347,-0.38563963770866394,-0.9410662055015564,-0.48598983883857727,-0.24920687079429626,-0.5881737470626831,0.19772641360759735,-0.30987104773521423,-0.4488053321838379,-0.4744362533092499,-0.2547816336154938,-0.15419839322566986,0.5391998291015625,0.16480498015880585,-0.3081298768520355,0.48153677582740784,-0.769938051700592,-0.06217037886381149,0.0810285210609436,0.8279007077217102,-0.13701510429382324,0.08057648688554764,-0.12967529892921448,-0.07190937548875809,0.6033950448036194,-0.14493249356746674,-0.9327753186225891,-0.4747603237628937,-0.22572065889835358,0.08794841915369034,-0.5947741866111755,0.12996554374694824,-0.45950374007225037,-0.007591265253722668,0.2738698720932007,0.5258715152740479,0.025042859837412834,0.5238747596740723,0.15412560105323792,0.19111871719360352,0.43604713678359985,0.4068358540534973,-0.03452569618821144,-0.13084639608860016,0.36022108793258667,0.14992432296276093,0.38419902324676514,0.08765040338039398,-0.2930581569671631,-0.8553262948989868,-0.478719562292099,-0.6316864490509033,0.11707533895969391,0.45603644847869873,0.7173160910606384,-0.05026671290397644,0.21327489614486694,0.0016017226735129952,0.5465273261070251,0.1439722776412964,-0.5545855164527893,-0.0011455747298896313,0.3089961111545563,-0.5817177891731262,-0.3938086926937103,0.37095144391059875,-0.6644265055656433,0.7137200832366943,0.6122525930404663,0.7764595746994019,0.04766267538070679,1.3159147500991821,0.2667897641658783,-0.5855398178100586,-0.00336006679572165,0.20854991674423218,-0.8702666759490967,0.3764655590057373,-1.040041446685791,-0.09857717901468277,0.7969608902931213,-0.09390947222709656,0.3001025319099426,-0.07384730130434036,-0.36317747831344604,0.5461071133613586,1.447351336479187,-0.14286251366138458,0.11095452308654785,0.4286014139652252,0.13591378927230835,0.8013848662376404,0.11220715194940567,-0.29071274399757385,-0.2640891373157501,-0.5345577001571655,0.0995500385761261,0.006807509809732437,-0.34142041206359863,-0.30535411834716797,0.09357663989067078,0.4539552330970764,-0.3815411925315857,0.005765029229223728,-0.40304940938949585,-0.7042085528373718,-0.14866995811462402,-0.18452656269073486,0.4105210602283478,-0.12448027729988098,-0.4254004955291748,-0.12220388650894165,0.1477467268705368,0.12346995621919632,-0.06882332265377045,-0.4891422986984253,-0.971552848815918,-0.20343652367591858,-0.16261433064937592,-0.13904409110546112,0.6525241136550903,-0.4116238057613373,-0.026204749941825867,-0.22840502858161926,-0.031254008412361145,-0.11276455223560333,-0.02653288096189499,-0.09201181679964066,-0.09200248122215271,0.3001651167869568,-0.2611982524394989,-0.20061102509498596,0.2958083152770996,0.30524739623069763,0.2788810431957245,0.4856661260128021,-0.6731119155883789,0.004299644846469164,0.23565854132175446,-0.11652031540870667,-0.1076379120349884,-0.2036154866218567,-0.3978865444660187,0.1181383803486824,-0.305996835231781,0.25227034091949463,-0.7267980575561523,-0.02627597190439701,0.35204264521598816,0.3286026120185852,-0.2990381419658661,0.32480552792549133,0.13015058636665344,0.5576927065849304,0.057594142854213715,-0.5825543403625488,0.7774521112442017,-0.26623138785362244,0.10010472685098648,0.3509376347064972,-1.2278616428375244,-0.18533968925476074,0.24710997939109802,-0.6420403122901917,0.9425203204154968,0.1460232436656952,-0.7254326939582825,0.2242850959300995,0.2826152741909027,-0.3156633675098419,0.3838159441947937,-0.0576898455619812,-0.6278980374336243,-0.45515480637550354,-0.5770394206047058,-0.08788682520389557,0.9739997982978821,-0.2865031659603119,-0.3196999728679657,0.2148231863975525,-0.6793662905693054,-0.5612912774085999,0.1858980804681778,-0.4837745428085327,0.37193161249160767,0.41773471236228943,0.35150423645973206,-0.37020930647850037,1.0589056015014648,-0.5830917358398438,-0.030215298756957054,0.4441748261451721,-0.29995912313461304,-0.5514375567436218,0.5104671716690063,-0.653162956237793,-0.8476312160491943,-0.08920999616384506,-0.4742286801338196,-0.4909246265888214,0.19144496321678162,-0.05192673206329346,0.5314165949821472,-0.00016114162281155586,-0.5366702079772949,-0.1467197984457016,-0.3040963113307953,0.6296337842941284,-0.33225929737091064,0.7710888981819153,-0.3388429284095764,-0.5024121403694153,-0.5598534345626831,0.8259516954421997,0.4655620753765106,0.2683326303958893,-0.03952227160334587,-0.030527263879776,-0.5675665736198425,-0.3469819724559784,-0.10091673582792282,-0.28179246187210083,0.026883307844400406,-0.5610588192939758,-0.3443244695663452,0.3684654235839844,-0.1339295208454132,-0.5850517749786377,-0.5098885893821716,0.004430237226188183,-0.49555104970932007,0.2000969499349594,-0.4693056643009186,0.31208011507987976,-0.13534213602542877,-0.2457253336906433,0.22646532952785492,-0.19135481119155884,-0.3852662742137909,0.8848994970321655,-0.5902406573295593,-0.21212026476860046,0.05474365875124931,-0.24228766560554504,-0.37045109272003174,0.42387014627456665,0.020624155178666115,0.3101409077644348,0.263872891664505,-0.4029220640659332,0.8897977471351624,-0.2774590849876404,-0.4728357493877411,1.3706821203231812,0.5726182460784912,-0.4486145079135895,0.7624744176864624,0.18177729845046997,-0.6133041381835938,-0.08309514075517654,-0.6246839165687561,-0.6023754477500916,-0.08507952839136124,0.13634473085403442,-0.05758362635970116,-0.6693541407585144,-0.28295066952705383,-0.010681715793907642,-0.39878392219543457,-0.2660859525203705,0.3751443326473236,-0.7835890054702759,-0.5382304191589355,-0.12109795957803726,-0.4782187342643738,-0.29041892290115356,0.21713711321353912,0.40437737107276917,0.20217230916023254,0.1612999141216278,-0.49959155917167664,0.057139188051223755,-0.5291675329208374,0.37704163789749146,-0.6884909868240356,1.2716039419174194,-0.7282318472862244,-0.9076980352401733,-0.3043663203716278,-0.02260212041437626,0.3032781481742859,0.16097263991832733,-0.19332000613212585,0.10316606611013412,0.06876324117183685,-0.3688487708568573,-0.8425920009613037,-0.5293149352073669,0.07580673694610596,-0.5430219769477844,-0.9273467659950256,0.8899323344230652,-0.025628043338656425,0.1339292675256729,0.02603159286081791,-0.7777507305145264,-0.5478289127349854,-0.28839462995529175,-0.7432857155799866,0.28240966796875,-0.0457761213183403,0.003931540995836258,0.6823771595954895,-0.3858822286128998,0.1316305249929428,-0.5257965326309204,0.005104897078126669,-0.3562641739845276,-0.45776548981666565,-0.17338480055332184,0.3736904561519623,-0.058491602540016174,0.2784961760044098,0.7194801568984985,0.04518478363752365,-0.04511985927820206,-0.34499281644821167,-0.5795617699623108,0.03974930942058563,-0.40905600786209106,0.3639650046825409,0.1150265634059906,-0.19012302160263062,0.11799518764019012,-0.2555965781211853,-0.3941539227962494,-0.26692888140678406,0.3353358507156372,0.731644868850708,-0.3234812021255493,-0.027320200577378273,0.4659438133239746,-0.7086348533630371,0.4285080134868622,-0.6843388080596924,0.5849223732948303,-0.37919262051582336,0.020234648138284683,0.5998659729957581,-0.6435765027999878,0.11632929742336273,0.749244213104248,1.0875004529953003,0.8921579122543335,-0.13449561595916748,0.13255544006824493,0.5879875421524048,-0.23530741035938263,-0.21219639480113983,-1.1368801593780518,0.05346452444791794,0.05144016444683075,0.08973653614521027,0.4459476172924042,0.17477397620677948,-0.28411370515823364,-0.5167483687400818,0.48081517219543457,-0.5800873041152954,-0.4362852871417999,0.5281226634979248,0.10000023990869522,-0.5379979014396667,0.6238038539886475,-0.07139036804437637,-0.37573540210723877,-0.08932412415742874,0.4964052140712738,-0.37275904417037964,0.765609622001648,0.2025878131389618,-0.11882831156253815,0.5622701048851013,-0.27334532141685486,-0.6627801060676575,0.5047210454940796,1.0214072465896606,0.23878304660320282,0.36761146783828735,-0.4939369857311249,-0.032524626702070236,0.40833374857902527,0.29021787643432617,-0.46579083800315857,-0.4602159261703491,-0.31892073154449463,-0.4818618595600128,-0.5268874168395996,0.44851624965667725,0.26325488090515137,-0.31141218543052673,0.9723209738731384,0.008621236309409142,-0.3357419967651367,-0.2698022425174713,-0.48755738139152527,-0.007296496536582708,0.41781672835350037,0.14988061785697937,0.9222989678382874,-0.19182465970516205,-0.3299931287765503,0.060231998562812805,0.1329931765794754,0.09355559200048447,0.1762310117483139,0.2490130215883255,0.625024676322937,0.3549458086490631,0.16488000750541687,-0.21449322998523712,0.10501262545585632,-0.5547281503677368,-0.08800183236598969,-0.09211257845163345,0.06401325017213821,0.7745832800865173,-0.5629397034645081,-0.0364423431456089,-0.2782238721847534,-0.12026281654834747,-1.0193430185317993,-0.29029494524002075,0.15427502989768982,0.1088276281952858,-0.13595232367515564,0.03740256279706955,0.6782346367835999,0.8684914112091064,0.042207710444927216,-0.3595926761627197,0.07440602034330368,0.004178272560238838,-0.6025919318199158,0.3067668080329895,0.16500164568424225,-0.5546398758888245,0.6187370419502258,0.637719452381134,0.8524984121322632,-0.035122767090797424,0.48877575993537903,0.18219950795173645,-0.3021739721298218,0.0030122576281428337,0.3487652838230133,0.9577040076255798,0.4133385121822357,-0.01403991412371397,-0.1902773082256317,-1.0131934881210327,-0.2702651917934418,-0.369687557220459,-0.23663118481636047,0.3214614689350128,-0.9623579978942871,-0.5229994654655457,0.4839094579219818,0.010166245512664318,-0.2606287896633148,-0.355722039937973,0.35958409309387207,-0.15541690587997437,0.2386331409215927,-0.2204171121120453,1.5325380563735962,0.2197294682264328,0.15295344591140747,-0.040703799575567245,0.14969713985919952,-0.4302422106266022,-0.24298574030399323,-0.10318595170974731,-0.15212787687778473,0.1401372253894806,0.2343364804983139,0.35059043765068054,0.6518893241882324,-0.2419510930776596,0.18907977640628815,-0.07833996415138245,-0.09981289505958557,-0.34357914328575134,-0.0701565146446228,0.6757596731185913,0.3191470801830292,-0.57383131980896,-0.44676488637924194,0.015182088129222393,-0.5599752068519592,-0.8783232569694519,0.12423734366893768,0.1794397234916687,-0.33041003346443176,-0.2679169178009033,-1.4700349569320679,0.09374350309371948,-0.3853591978549957,-0.624099612236023,0.5981305837631226,0.7129121422767639,0.3713584244251251,-0.6891220211982727,0.7096408605575562,0.3607659339904785,-0.675219714641571,-0.7211244106292725,-0.21296203136444092,0.6276727914810181,-0.34251105785369873,-0.47334781289100647,0.09773192554712296,-1.145772933959961,-0.1147175282239914,0.9199222326278687,-0.18023362755775452,-0.20495635271072388,0.8396434783935547,-0.25314489006996155,-1.3189971446990967,0.42502787709236145]},"inputHidden":{"rows":20,"columns":20,"weights":[1.0165013074874878,-0.4451545178890228,-0.1440415233373642,-0.19853641092777252,0.15409952402114868,-1.7572537660598755,0.28834328055381775,1.5617913007736206,0.9018781781196594,1.2156739234924316,-0.07971014082431793,1.3378783464431763,0.016460012644529343,-1.0054566860198975,0.6163458824157715,-0.191375732421875,1.8255375623703003,-1.0848140716552734,1.3458290100097656,2.1812636852264404,-0.45338189601898193,1.184487223625183,-0.015529598109424114,-0.4051784574985504,-0.882407009601593,-2.32493257522583,-0.07793445885181427,0.9007269144058228,1.2801835536956787,1.3751139640808105,1.082597017288208,0.06875328719615936,0.22340023517608643,-0.5670560002326965,0.3245954215526581,0.09396310895681381,2.0678391456604004,-0.272786021232605,0.1124148890376091,-0.05255066975951195,2.1429779529571533,0.47502562403678894,-1.1655657291412354,-0.8847225904464722,-0.28721973299980164,-0.959644079208374,1.5602487325668335,-2.410768985748291,-1.2008905410766602,0.7218582630157471,0.6923620104789734,-1.1828354597091675,-0.4580821394920349,1.4284143447875977,-0.7556196451187134,0.17522160708904266,-0.5956984758377075,2.513716459274292,-0.6202467083930969,-1.4519716501235962,-1.9858382940292358,-0.032253336161375046,0.44588133692741394,1.0334001779556274,0.5477354526519775,-0.7934010028839111,-1.0049787759780884,-0.2972423732280731,-0.35129082202911377,1.3162798881530762,-0.6496456265449524,0.45520707964897156,-0.3306623101234436,-0.03269907459616661,-0.331246554851532,-0.5828341245651245,1.4795124530792236,-0.3676263093948364,-0.6123898029327393,-0.7041158080101013,-0.10655763000249863,-0.48643866181373596,0.9653723239898682,0.5609598755836487,0.7394731640815735,-1.5379680395126343,-1.793433666229248,-0.3705810010433197,0.6266654133796692,1.3184232711791992,0.3175341486930847,0.5567983984947205,-0.8464046716690063,-0.08273059129714966,0.5921909213066101,0.6081418991088867,2.267923355102539,0.5284287333488464,0.3979385793209076,-0.26867052912712097,-0.3688877820968628,-1.1435331106185913,0.3750796914100647,-0.014529233798384666,0.42633944749832153,1.1825617551803589,1.852529764175415,-0.325304239988327,0.6497849225997925,-2.51381778717041,-0.6055732369422913,1.5196553468704224,-0.8447495698928833,-1.2741702795028687,-1.4830042123794556,0.0401628352701664,-0.723218560218811,0.4482918381690979,0.839898943901062,0.7325799465179443,0.6952735185623169,0.8181263208389282,-0.7869542241096497,0.9875995516777039,-0.1816457211971283,1.7229890823364258,1.5304354429244995,-0.8348236680030823,-0.8450431227684021,-2.079587936401367,-0.3152868151664734,-1.019621729850769,0.33453452587127686,0.9424918293952942,-1.4669572114944458,-0.3143896162509918,-1.22382390499115,-0.7437504529953003,-0.07976435124874115,1.3084256649017334,-2.545875310897827,-0.8698394298553467,-0.11453089863061905,1.2752822637557983,0.4515482783317566,0.7375682592391968,-0.9035632014274597,0.8641414046287537,0.7494169473648071,-0.6859128475189209,-0.788787305355072,1.3574813604354858,-0.504716157913208,-1.2542911767959595,-0.10942333191633224,-0.5700819492340088,0.09579381346702576,-0.0003277028154116124,-0.36304202675819397,0.7217267155647278,-0.783384382724762,-0.02180696465075016,0.4974983334541321,1.4872910976409912,0.5612925291061401,-1.1539920568466187,-1.406684398651123,0.6135205030441284,0.7046133279800415,1.2375177145004272,0.5178102254867554,-0.35142982006073,0.6992275714874268,-0.8819113373756409,0.7207351922988892,0.37649375200271606,1.592863917350769,-1.2784217596054077,0.08188984543085098,2.2196402549743652,0.4825235605239868,-0.03853842616081238,0.551357626914978,-0.8521186113357544,-0.5784311294555664,0.9285106658935547,1.093056559562683,2.2197799682617188,0.031544364988803864,-2.872115135192871,-0.6158559918403625,0.20440137386322021,-0.02511877752840519,0.7507236003875732,-0.4318349063396454,-1.3459868431091309,-1.21248459815979,-0.9178905487060547,2.105734348297119,0.5618960857391357,-0.18432113528251648,-0.799444317817688,-0.7638713121414185,-1.3335000276565552,1.0158554315567017,0.08135746419429779,0.586246132850647,-0.9870999455451965,-0.2952078878879547,0.10120058804750443,-1.5733026266098022,0.5979406237602234,-0.23566119372844696,-0.5544962882995605,-1.290844440460205,0.9741135835647583,-0.6386805772781372,1.1967499256134033,-1.852550745010376,-0.8640458583831787,-0.45897069573402405,1.1227251291275024,-0.42486539483070374,0.9734213948249817,-0.9230206608772278,-2.268690586090088,-0.09267745912075043,1.2913893461227417,0.3124357759952545,1.105252981185913,0.4801557660102844,-0.3098818361759186,1.3244431018829346,-0.3524802327156067,0.9310503602027893,-0.27886396646499634,1.7992408275604248,-0.5143219828605652,0.09745365381240845,0.139576718211174,0.6313011646270752,0.24137499928474426,-1.2006064653396606,-1.0476727485656738,-1.1047505140304565,-1.603211760520935,-1.046078085899353,-2.8909049034118652,0.3586297035217285,0.015312809497117996,-1.4308167695999146,0.33185604214668274,0.47200822830200195,0.9308011531829834,0.4537568688392639,1.4563881158828735,-0.659719705581665,0.8003431558609009,-0.91275554895401,-2.009589433670044,0.42963549494743347,0.7498138546943665,-0.9910790920257568,1.0255999565124512,-0.3715263307094574,-1.4563769102096558,-0.5960597395896912,0.610641598701477,0.2191963940858841,0.5331087112426758,-0.7895354628562927,-0.22987622022628784,1.892677664756775,0.32555779814720154,0.3309454619884491,0.29200419783592224,0.08899444341659546,-0.7006464600563049,0.5310862064361572,1.31058931350708,-0.3408762514591217,-0.2960294485092163,-1.786584734916687,-0.4600870609283447,0.1149708554148674,1.423033356666565,2.4857490062713623,0.44829368591308594,-0.5415665507316589,-2.923581123352051,-1.1786372661590576,0.7502723336219788,-1.2110291719436646,-0.5690166354179382,-3.036078453063965,-0.42511481046676636,-1.0115805864334106,0.5128640532493591,0.23604732751846313,-0.8482097387313843,-0.0950143113732338,1.0569819211959839,-1.5014160871505737,-0.46083447337150574,-1.7797774076461792,-0.12013951689004898,0.3725241720676422,-0.5873088240623474,0.07663168758153915,-0.3775924742221832,-2.8290388584136963,-0.6002760529518127,-1.1731159687042236,1.0400928258895874,-0.6840043663978577,1.0622062683105469,0.318192720413208,0.44262227416038513,1.5787309408187866,0.5892871022224426,0.839515745639801,0.8418210744857788,-0.5669623613357544,-0.2998223900794983,-0.8655173182487488,0.4064607620239258,1.3792884349822998,1.1528398990631104,-0.5791085958480835,-1.0885398387908936,-0.6836796998977661,-1.0176520347595215,-0.9374939203262329,1.1799461841583252,-1.2696881294250488,-1.1547112464904785,-0.7888363003730774,0.021764887496829033,1.0516937971115112,0.28044453263282776,-1.53121018409729,-0.5576109886169434,0.13906864821910858,0.09523862600326538,-0.06993039697408676,1.1917369365692139,-1.3815842866897583,-1.759666919708252,-0.7764449715614319,-0.19400864839553833,-2.105854034423828,0.214174285531044,-0.6186708211898804,-0.2191026657819748,0.074627585709095,0.7657259702682495,-0.2649582326412201,1.192253589630127,-0.19320087134838104,-0.07139334082603455,0.01465829461812973,-1.1353222131729126,0.15295056998729706,0.7793651223182678,0.40931686758995056,-0.07008430361747742,-0.6813474297523499,-0.32474878430366516,-0.39852404594421387,-1.16024911403656,-0.24687343835830688,0.7887524366378784,0.24579380452632904,0.28986039757728577,-0.172488734126091,-1.0701714754104614,-1.0793049335479736,0.838385283946991,-1.218768835067749,-1.596871018409729,-1.4393043518066406,-0.6163843870162964,1.012717604637146,-1.5947359800338745,0.22263899445533752,0.7360868453979492,0.5169588327407837,-0.757713794708252,-0.44310203194618225,-1.5123237371444702,-0.527973473072052,0.6462570428848267,-1.3534621000289917,-0.8246661424636841,-0.9364811182022095,-0.9099816083908081,-1.5563390254974365,0.49520638585090637,-0.31400665640830994,-0.014029007405042648]},"inputBias":{"rows":20,"columns":1,"weights":[1.295291543006897,0.1304304301738739,0.30662819743156433,-0.36366257071495056,0.4745597243309021,0.48368531465530396,0.7382889986038208,0.06774841248989105,0.8694031238555908,0.6292441487312317,0.4464893341064453,0.546970784664154,0.49812063574790955,0.8935120701789856,0.4325346052646637,0.12284022569656372,1.0864791870117188,-0.6293929219245911,-0.09386233985424042,1.2680888175964355]},"forgetMatrix":{"rows":20,"columns":38,"weights":[0.364706426858902,1.5397076606750488,-0.41526883840560913,-0.3669699728488922,-0.938843846321106,0.03377901017665863,0.06852885335683823,0.08351479470729828,-0.46028202772140503,-0.25865650177001953,-2.0401957035064697,0.278964638710022,0.4175580143928528,0.5711210370063782,0.07508441805839539,-0.9883832335472107,-0.15104882419109344,-1.1067157983779907,-0.2849498391151428,0.6723167896270752,0.7098806500434875,-0.5425496101379395,0.7823275923728943,-0.05000413954257965,-0.09683941304683685,-0.09044891595840454,0.020157465711236,0.8431823253631592,-0.6989017724990845,0.0808359831571579,0.28872647881507874,-0.24793174862861633,-0.32595932483673096,-0.8630782961845398,-0.2594852149486542,0.9360578656196594,1.1061265468597412,0.10541762411594391,-0.38712409138679504,1.5050029754638672,0.066472627222538,-0.4207768738269806,-0.8233069181442261,-1.1220344305038452,0.09679722040891647,-1.0320372581481934,0.1242586150765419,-0.3029152750968933,-1.4943186044692993,0.01423267275094986,-0.8967467546463013,0.8015100359916687,0.26393553614616394,-1.1734061241149902,0.07928597927093506,-0.1695396602153778,0.20380334556102753,0.1290562003850937,1.3473832607269287,0.5011908411979675,-0.04015307500958443,-0.3615381419658661,-0.104855976998806,0.22594477236270905,-0.7511720657348633,0.2185007929801941,0.15769244730472565,-0.16853058338165283,-0.1336948722600937,0.2852138876914978,0.31581127643585205,-0.2781897783279419,0.26269394159317017,-0.40455344319343567,-0.29803016781806946,0.5671433210372925,0.4000035226345062,0.45460420846939087,-0.025626352056860924,0.3603228032588959,-0.2680664658546448,-0.9016607999801636,-0.3194158673286438,-0.7860433459281921,0.3681492507457733,-0.38684871792793274,-0.901647686958313,-0.754852831363678,-0.2767603397369385,-0.05344682186841965,-0.2661289572715759,-1.431092619895935,1.188030481338501,0.11012981086969376,1.3182106018066406,-0.9889435172080994,1.2882599830627441,-0.40627285838127136,-0.9262982606887817,-0.7256943583488464,0.734542965888977,-0.1557479202747345,-1.0232423543930054,-0.9435827136039734,0.4052762985229492,-0.12023252248764038,0.0621827132999897,0.41696932911872864,-0.4902139902114868,0.24324268102645874,0.3598426282405853,-0.3220857083797455,0.20905417203903198,0.4550924003124237,-0.12893950939178467,0.5853478908538818,0.16452999413013458,-0.2967086434364319,-0.07566236704587936,0.12578468024730682,-0.7432867884635925,-0.5444861650466919,-0.637974202632904,-0.9959867000579834,-0.8479624390602112,0.17383705079555511,0.44982632994651794,0.11313007026910782,-0.11909916251897812,-0.4188060462474823,-0.1128963753581047,-0.2941216230392456,-0.6867713332176208,-0.1751558631658554,-0.06834437698125839,-0.631640613079071,-0.5330905318260193,-0.11334861069917679,-0.09591423720121384,-0.2187844216823578,0.5979539752006531,0.5324503779411316,-1.0290186405181885,0.2698512077331543,-0.21635664999485016,-0.19195814430713654,-0.3859911262989044,-0.6402512192726135,0.02137855626642704,0.33587417006492615,0.5066169500350952,-0.5742923617362976,-1.1363461017608643,0.7801621556282043,0.1963835060596466,-0.7696972489356995,-0.10574318468570709,-0.6572390198707581,0.07894498854875565,-0.9062767624855042,-0.6749330759048462,-0.22196798026561737,0.2221912294626236,0.5909570455551147,-0.3915087580680847,-0.0044180965051054955,0.2055875062942505,-0.4038950502872467,-0.08119803667068481,-0.19051676988601685,0.003929384984076023,-0.14045199751853943,0.4364292323589325,0.5074560046195984,-0.43689626455307007,-0.07598503679037094,-0.46797576546669006,0.01789533533155918,0.40725359320640564,0.23477736115455627,-0.6975461840629578,0.15447884798049927,-0.1930023729801178,0.05749158188700676,0.6996847987174988,-0.33273595571517944,-0.4505748748779297,-0.4464467763900757,0.20152387022972107,-0.039046499878168106,-0.2748929262161255,-0.01602121628820896,-0.36427170038223267,-0.07323525100946426,0.5889326930046082,-0.6879656910896301,0.2522563636302948,0.3390865921974182,-1.0386197566986084,0.4263969957828522,0.07406145334243774,0.29509103298187256,0.3772689998149872,-0.7574648261070251,-0.6836304664611816,1.0961802005767822,-1.0976518392562866,-1.243709683418274,-0.44531017541885376,1.4370038509368896,-0.4344421327114105,0.4229108989238739,1.0383113622665405,0.338204562664032,-0.6424782872200012,-0.8960537314414978,0.8376033306121826,0.6221519112586975,-1.1463319063186646,0.38898587226867676,0.714208722114563,-0.07231702655553818,0.810416042804718,-1.3728599548339844,-0.7263863682746887,0.33160310983657837,1.0025866031646729,-1.3084877729415894,-0.38867172598838806,-0.6697611212730408,0.014574110507965088,-0.4440356194972992,0.0961826965212822,-0.1273685246706009,0.48101189732551575,0.46468180418014526,-0.5680683255195618,0.43421775102615356,0.3840779662132263,0.7097420692443848,1.753674864768982,-0.23194889724254608,0.01573297567665577,0.18921047449111938,0.08643370121717453,-1.3874739408493042,-0.1633058488368988,0.10722880810499191,0.3953564465045929,0.5070608258247375,0.997037947177887,1.4984376430511475,-0.3180450201034546,-0.9681792259216309,1.6809725761413574,-0.5548765659332275,-0.48446714878082275,1.3466747999191284,-0.1651296317577362,-1.3190279006958008,0.9062752723693848,-0.20867343246936798,-1.1550681591033936,-1.4591755867004395,0.9008903503417969,-0.7941813468933105,-0.5865777730941772,0.5377167463302612,-0.46698418259620667,-1.5697752237319946,-0.18661656975746155,-1.124035358428955,1.2734041213989258,0.45327842235565186,-0.16358359158039093,-0.3460722863674164,-0.48666900396347046,1.3475916385650635,0.4998611807823181,0.43305954337120056,0.9756825566291809,-0.5630408525466919,0.010341458022594452,-0.8150798678398132,-1.0539132356643677,0.2205599546432495,-0.4054591953754425,0.5533958673477173,0.8451588749885559,0.2396695464849472,-0.45163190364837646,-0.4560488164424896,0.1409754604101181,0.0775800496339798,-0.5237221717834473,0.8585085868835449,-0.7118858098983765,-0.7575175166130066,0.36598947644233704,-0.40710291266441345,-0.8636814951896667,-0.08606071770191193,0.2462775856256485,-0.11309017241001129,0.6235994100570679,-0.6980916261672974,0.48714935779571533,0.5856161713600159,0.3863303065299988,0.9435437917709351,-1.2480472326278687,0.42868608236312866,-0.23121775686740875,1.2578965425491333,0.5224673748016357,-0.390290766954422,0.3524094820022583,-0.6013140082359314,-0.7833608984947205,0.30202871561050415,0.08985128998756409,-0.027590900659561157,1.1903873682022095,-1.0999644994735718,-0.3603416383266449,-0.8673747181892395,-0.16153164207935333,-1.2390133142471313,0.7580570578575134,0.4701852798461914,-0.020561154931783676,0.38765349984169006,0.06369294971227646,-0.8263916969299316,0.4649350345134735,0.07369478791952133,-0.6686388850212097,0.8989320397377014,-0.22178320586681366,0.17836853861808777,0.30729007720947266,0.32280439138412476,0.39747586846351624,-0.15368297696113586,1.0361932516098022,-0.5595055222511292,0.7750317454338074,-0.771971583366394,-0.2608504593372345,0.6726189255714417,0.1469757854938507,-0.9676228761672974,0.20494219660758972,0.5964165925979614,0.10546191036701202,-0.20780311524868011,0.008969265036284924,-0.24260658025741577,-0.2923758327960968,0.3141697943210602,-1.1954282522201538,0.605781078338623,-0.46043407917022705,0.42186352610588074,0.7140470743179321,-0.01026955060660839,-1.0817688703536987,0.07997272908687592,0.1259700357913971,-0.3420640528202057,-0.1717868149280548,-0.19791236519813538,0.17609480023384094,0.5307336449623108,0.8368614315986633,0.19678658246994019,0.04834374040365219,0.3854241371154785,-0.354164719581604,-0.11945056915283203,0.03295569121837616,0.2758062481880188,0.550678551197052,-0.265979140996933,0.0699533075094223,-0.8529461026191711,-0.6776652336120605,-0.9663286209106445,-0.29252874851226807,-0.5749238133430481,-0.013305236585438251,-0.2873878479003906,0.5368176102638245,0.16777484118938446,0.2415371686220169,-0.21903981268405914,0.610384464263916,-0.3135872185230255,0.2755991220474243,-0.5425260663032532,1.529211401939392,0.42637115716934204,-0.671811044216156,-0.2042079120874405,-0.03371839597821236,-0.14405588805675507,0.18154767155647278,-2.0183005332946777,-0.14023542404174805,0.0652468204498291,0.0854242593050003,-0.0795331746339798,1.0584222078323364,0.16867870092391968,-0.03307585418224335,-1.1223249435424805,-0.16819387674331665,0.015473142266273499,-0.395779550075531,2.101762056350708,-0.16450686752796173,-0.47504356503486633,-1.3275399208068848,-0.840707004070282,0.34638461470603943,-0.6189829707145691,-0.17830584943294525,-0.2667723596096039,-2.17722749710083,-0.0017334514996036887,-0.49996116757392883,1.3939692974090576,0.6003480553627014,-1.3443470001220703,0.013805912807583809,-0.8670559525489807,-0.3176775276660919,0.5071734189987183,1.0172632932662964,-0.01391711924225092,0.4386219382286072,-0.047772116959095,-0.31126582622528076,-0.1499505639076233,-0.5409625172615051,0.36981743574142456,-0.02449118159711361,0.024775609374046326,-0.43124788999557495,-0.008810802362859249,-0.06677283346652985,-0.5610425472259521,-0.17108464241027832,-0.045759785920381546,0.15693005919456482,0.3257409334182739,-0.6676421165466309,0.2820092439651489,-0.534673810005188,-1.260925054550171,-0.39047858119010925,-0.34904593229293823,0.30611735582351685,0.2848251760005951,-0.5352587103843689,-1.080030918121338,-0.6947762966156006,0.4161180257797241,1.5709490776062012,0.6255931854248047,1.0515090227127075,-0.6089445352554321,-0.6899374723434448,-1.6768264770507812,-0.8888450264930725,0.7983663082122803,0.17521558701992035,-0.30223172903060913,0.8017441034317017,0.6010405421257019,-0.44277095794677734,-0.24609297513961792,0.34695354104042053,0.22576501965522766,-1.0877407789230347,0.9047350883483887,-0.7978500723838806,-0.7857220768928528,-0.3605802357196808,-0.6254929304122925,-1.6181615591049194,-0.17139291763305664,0.3943077623844147,0.048144642263650894,0.05943680927157402,1.185380220413208,-0.2902671992778778,-0.3601064682006836,-1.2161922454833984,0.05588807165622711,0.7374086380004883,-0.22950758039951324,-0.21519538760185242,-0.4564385414123535,-1.0430055856704712,0.3924739360809326,0.00412988755851984,1.038120985031128,0.36891892552375793,-1.0832173824310303,0.013491244986653328,-0.41907593607902527,-0.2185228317975998,0.5373350977897644,0.23968037962913513,-0.5233179926872253,0.03438775986433029,0.758327305316925,-0.13339799642562866,-0.6329488754272461,0.5827063322067261,0.7038612365722656,-0.2617124021053314,0.26059669256210327,-0.6187371015548706,-0.4206772744655609,-0.5458508729934692,-0.07661257684230804,-0.2879294455051422,0.2533535361289978,0.16031168401241302,0.14269588887691498,-0.8044440150260925,0.1856296807527542,-0.4330912232398987,0.365023672580719,-0.37967240810394287,0.26678702235221863,0.22212721407413483,-0.4223146438598633,-0.6023796200752258,0.03036237508058548,-0.05853733420372009,0.8578491806983948,0.18153896927833557,0.28864914178848267,0.23424163460731506,-0.5038731694221497,-1.1399059295654297,-1.1234097480773926,0.045147527009248734,0.14235560595989227,0.5445370078086853,-0.43179842829704285,-0.2522870600223541,0.9185186624526978,-0.3685591518878937,-0.03663182631134987,1.9448223114013672,0.11391184478998184,-0.6662006378173828,0.6370801329612732,-0.11506248265504837,-0.718586802482605,0.18926766514778137,-0.1842612624168396,-1.395763874053955,0.1012856587767601,1.6286354064941406,-0.7800053358078003,0.20387379825115204,0.3175501227378845,-1.3770159482955933,-0.26660990715026855,0.3134411871433258,-1.106596827507019,0.6336165070533752,0.5250455737113953,0.07823101431131363,0.31197404861450195,-0.8491531610488892,-0.550740659236908,0.14040175080299377,-0.7184441089630127,-0.3745749890804291,-0.2202579528093338,-0.15680734813213348,-0.8634571433067322,1.057564377784729,-0.027925217524170876,0.42769721150398254,-0.3694334030151367,0.04316697642207146,-0.5143595933914185,0.18992291390895844,0.15188582241535187,-0.9004681706428528,0.18180274963378906,0.22926490008831024,0.5374882221221924,0.5327509045600891,-0.4927738904953003,-0.24007725715637207,-0.3448123037815094,-0.9892998933792114,0.5951313376426697,0.30009323358535767,-0.00031015116837807,-0.7316252589225769,0.45244693756103516,-0.4589974582195282,0.7788434624671936,-1.2049894332885742,0.9561991691589355,0.253088116645813,-0.35329189896583557,-0.1373158097267151,-0.23998011648654938,-0.5915598273277283,0.5730642676353455,-0.576422393321991,1.1399426460266113,1.1669631004333496,-0.41279903054237366,-0.6296541094779968,-1.2975270748138428,0.34997254610061646,0.579741358757019,-0.4681401550769806,-0.767049252986908,0.14315705001354218,0.2647186517715454,-0.007595975883305073,-0.15896083414554596,0.46589094400405884,1.3556668758392334,-0.3396892845630646,-0.11074584722518921,-0.9604116678237915,0.08070334047079086,-0.7419204115867615,-0.15062199532985687,-1.5514341592788696,0.8874369859695435,0.9952720999717712,-0.5225558280944824,-0.5798315405845642,0.17435266077518463,0.12860478460788727,0.5354664921760559,-0.2024354338645935,-0.05427205190062523,-0.48912426829338074,-0.7722907662391663,0.09806706011295319,0.2588692009449005,-0.34653472900390625,-0.450536847114563,-0.21241413056850433,-0.0050404248759150505,0.3898867070674896,0.5338124632835388,-0.18981340527534485,-0.5214086174964905,0.9841904640197754,-0.299516499042511,0.5229699611663818,-0.2816564440727234,-0.2351163923740387,-0.2922901213169098,-0.0773463249206543,0.24949362874031067,-0.11052791774272919,0.33669379353523254,-0.12115742266178131,-0.0029175663366913795,0.16053831577301025,-0.0019663278944790363,-0.11420278996229172,0.22946225106716156,-0.3130299150943756,-0.4743950366973877,0.13631512224674225,0.48569637537002563,-1.3173389434814453,-0.6358398795127869,0.7910704612731934,-0.9376659393310547,0.7834957838058472,-0.9024890065193176,0.4806039035320282,0.3563726842403412,-0.5887467861175537,-0.33548659086227417,0.9126983880996704,0.50189208984375,-0.7816843390464783,-1.0044116973876953,0.10717922449111938,0.5841054320335388,0.9013952612876892,-0.3598840832710266,-0.17259781062602997,-0.40452659130096436,-0.33841437101364136,0.9186677932739258,0.6415602564811707,-0.6418586373329163,-0.12872764468193054,-0.04351121932268143,-0.61654132604599,-1.4585508108139038,-0.655900239944458,-0.21549105644226074,-0.033907100558280945,0.3498421013355255,1.3054554462432861,-0.8041968941688538,-0.3202534019947052,-0.7909024357795715,0.12237069755792618,-0.30644509196281433,-0.388083279132843,0.2008545696735382,-0.6823235750198364,0.018540382385253906,-0.07977405190467834,0.42891478538513184,0.8904441595077515,0.2716301381587982,-0.3593905568122864,0.0084688700735569,0.42591366171836853,0.5981557965278625,1.0162503719329834,0.28577157855033875,0.6460599303245544,0.426660418510437,-0.9262655973434448,-0.3509027361869812,-0.11414658278226852,0.41629084944725037,-0.7863396406173706,-0.2486741542816162,0.5778455138206482,0.8497698307037354,0.0752718523144722,-0.4612938165664673,1.1152957677841187,0.889748215675354,-0.44695886969566345,0.8821517825126648,-0.05235591530799866,-1.2637274265289307,0.024843936786055565,0.16322585940361023,-0.5446158051490784,-0.2884637415409088,1.4252581596374512,-0.5000788569450378]},"forgetHidden":{"rows":20,"columns":20,"weights":[0.37928062677383423,-0.6105865836143494,-0.8607441186904907,0.5941628813743591,-0.1238178014755249,1.7104297876358032,-0.07502561062574387,-0.3223331868648529,0.5993894338607788,-1.5495706796646118,-0.6799388527870178,-0.23764345049858093,-0.46981626749038696,0.8023653030395508,-0.6096641421318054,-1.1565991640090942,-2.150355100631714,-0.34074410796165466,1.172194480895996,0.30953773856163025,-0.06904643028974533,-0.46775513887405396,-0.011015240103006363,0.6113026738166809,0.6089606881141663,1.9160475730895996,1.2434877157211304,-0.24250175058841705,0.713270366191864,-1.475779414176941,-0.8154839277267456,0.3037888705730438,-0.4682144522666931,-0.19588470458984375,-0.15163668990135193,-1.547040343284607,-1.2197614908218384,-0.30513474345207214,-0.1619478166103363,0.6546726822853088,-0.4356003999710083,-0.4548972547054291,-0.16148538887500763,0.4762444496154785,0.5346097350120544,-0.7398701906204224,-0.6251693964004517,-0.04065997898578644,-0.9053425192832947,-1.1077967882156372,-0.4665664732456207,0.3842661678791046,0.45721280574798584,0.11653589457273483,0.13766729831695557,-0.44736191630363464,-0.0644243136048317,0.4368551969528198,-0.7262879014015198,0.5399107933044434,0.8806704878807068,0.12035956233739853,0.5320309996604919,1.7331392765045166,-0.31996190547943115,1.1229381561279297,0.6095280051231384,-0.20450907945632935,-0.9783815145492554,-1.2969679832458496,-0.7385084629058838,-0.6034373044967651,0.17960388958454132,1.0629116296768188,-0.36606279015541077,-1.1087101697921753,-0.5715400576591492,0.04039287939667702,-1.4147549867630005,0.8179525136947632,0.2076021432876587,-0.206562802195549,0.049871306866407394,1.0276353359222412,0.14383476972579956,1.3944836854934692,1.357542634010315,1.1772136688232422,-0.14676563441753387,-1.4524043798446655,-0.6643028259277344,-0.29975754022598267,-0.30888330936431885,0.1168132945895195,-0.2221844345331192,-2.3179144859313965,-1.3334791660308838,-1.0202386379241943,0.26898032426834106,1.043821930885315,-0.9571759104728699,-0.5101428031921387,0.6309681534767151,0.5527097582817078,0.7538002729415894,-0.03090243972837925,1.0828962326049805,1.1776810884475708,0.019441593438386917,0.05866852030158043,1.4780863523483276,-0.20302113890647888,-0.04423229768872261,-0.8070119023323059,-0.7797597646713257,-0.7222334146499634,-0.5757445096969604,-1.1407690048217773,-0.21431918442249298,-1.1868433952331543,-0.983768880367279,-0.7937089204788208,0.7615341544151306,1.1902871131896973,0.7261786460876465,0.849453330039978,-0.5538907647132874,-1.1422256231307983,-0.9569799304008484,0.4000612199306488,-0.7522273063659668,0.6203972697257996,-0.4439467191696167,-0.06805720925331116,0.5941212177276611,-0.05697191506624222,0.9617496132850647,0.06208336725831032,-0.7671018242835999,-1.4511157274246216,1.3985440731048584,-0.32569119334220886,-1.2927780151367188,-0.25257059931755066,0.199630007147789,-0.2749239504337311,0.8222041130065918,0.6501566767692566,-0.6835219264030457,0.2699093222618103,-0.08999350666999817,0.272632896900177,0.5089751482009888,0.6480876803398132,-0.17888854444026947,-0.37125274538993835,-0.8557633757591248,-0.9241346120834351,0.14388211071491241,1.0155291557312012,1.1876323223114014,-0.2002013623714447,-0.5022883415222168,1.0643893480300903,-0.4715596139431,0.8337455987930298,-0.49914494156837463,-0.3280816078186035,-0.6983398795127869,-2.221466064453125,-0.2250392884016037,-0.4283325970172882,0.801840603351593,0.8414382338523865,1.3060420751571655,-0.10125923156738281,-1.0840011835098267,-0.3768708109855652,0.8034632802009583,0.4768267273902893,0.14770931005477905,0.3969762325286865,0.3276330232620239,-0.5029687881469727,-0.23294803500175476,-0.5495697855949402,-1.2654798030853271,-2.196963310241699,-1.3621684312820435,2.3050737380981445,-0.1985296905040741,-1.1365509033203125,0.5997164845466614,0.675260603427887,1.1643385887145996,1.0222115516662598,1.4000988006591797,2.419186592102051,0.28805285692214966,-1.5691550970077515,-0.14013533294200897,-0.02134915627539158,-1.2070667743682861,0.7453007698059082,-0.47780513763427734,-0.28814563155174255,-0.5827834606170654,-0.25229108333587646,0.03068908303976059,-1.2563408613204956,-1.6166492700576782,0.1405515819787979,0.5295770168304443,0.8966910243034363,1.2663421630859375,-0.8982512354850769,-0.46906977891921997,-0.08715126663446426,0.3374554514884949,0.060303945094347,0.026323841884732246,-0.6434128284454346,-0.35575443506240845,0.5033912062644958,0.2232261747121811,1.763264536857605,0.6043938994407654,-0.6945028305053711,0.2844850420951843,-1.2836846113204956,-0.9402689337730408,0.30057743191719055,0.10816003382205963,-0.1224556639790535,-0.24544388055801392,-0.5341864228248596,-0.6209932565689087,-0.08443140983581543,0.10731986910104752,0.18446987867355347,-0.08840467035770416,-0.0800853818655014,0.05350374057888985,-1.0769810676574707,0.08722379058599472,-0.9126548171043396,0.658413290977478,-1.3527569770812988,-0.3314533233642578,1.6006261110305786,0.08470609784126282,0.20490548014640808,-0.30503490567207336,0.4528270959854126,-0.5731519460678101,0.08426105231046677,-0.22539950907230377,1.0381051301956177,0.7871385216712952,-1.932050108909607,0.7356325387954712,-0.41864344477653503,1.1525956392288208,1.6948586702346802,0.19969867169857025,1.2173457145690918,0.15301518142223358,-0.29219725728034973,0.2810263931751251,-0.7131012082099915,-0.15854500234127045,0.03326177969574928,-1.5356242656707764,0.38712814450263977,-0.28084036707878113,-1.0147727727890015,-1.0886083841323853,-1.0782523155212402,0.19142039120197296,0.47012796998023987,-0.165018230676651,0.36301350593566895,-1.1888121366500854,1.4917765855789185,-0.35362979769706726,-1.0995900630950928,-0.8638474345207214,0.6876892447471619,-1.379209280014038,0.7934753894805908,0.1611030250787735,-0.9924165606498718,1.4288631677627563,0.23271656036376953,1.067057728767395,0.486017644405365,0.6952928900718689,0.6894404292106628,-0.00646667554974556,0.052834659814834595,1.1450552940368652,-0.12689481675624847,0.9985212087631226,1.1459389925003052,0.6023488640785217,-0.5891097784042358,0.2565760314464569,1.1719388961791992,0.04080506041646004,-1.5656102895736694,1.4845436811447144,0.016849786043167114,-0.18140891194343567,1.0287832021713257,-0.46395304799079895,-0.996425211429596,0.7000659108161926,-1.1342804431915283,0.946290910243988,1.7264416217803955,0.11199157685041428,-0.15523816645145416,0.844066858291626,-0.41874298453330994,0.3960622549057007,-0.32035911083221436,-0.5649403929710388,-0.2986319959163666,-0.13505873084068298,1.0404365062713623,2.2554235458374023,-0.23322957754135132,0.3139515817165375,0.25175803899765015,1.6401054859161377,0.6289585828781128,0.025012819096446037,0.4645795524120331,-0.5611715912818909,-0.7083723545074463,-0.7922310829162598,0.40730780363082886,-1.4576677083969116,-0.29386311769485474,-0.7663969993591309,-0.41670870780944824,0.22282961010932922,1.1984039545059204,0.7086716890335083,-0.11063589155673981,-1.8396718502044678,0.5720906853675842,-0.0971045047044754,-0.05400240048766136,-0.7434288859367371,0.04220768064260483,-0.11809039860963821,-1.083145260810852,1.7084553241729736,1.0929138660430908,0.3776158392429352,0.1926155537366867,-0.3365142047405243,-0.1909947544336319,0.13633045554161072,0.1253328174352646,-1.3381495475769043,0.8725135326385498,0.6608690023422241,0.8442392349243164,-0.6595191359519958,0.5035651922225952,1.0387014150619507,-0.11131888628005981,0.7857439517974854,1.334925889968872,0.9862839579582214,-0.8679734468460083,-0.0766029879450798,0.49149614572525024,1.2624640464782715,0.8529588580131531,-1.7920998334884644,-0.25319382548332214,-0.4795317053794861,-0.7234809398651123,-0.07991558313369751,0.6639530062675476,-1.0318964719772339,1.246185064315796,-0.46797212958335876,-1.3380547761917114,0.47574371099472046,1.8461956977844238,-0.9342831969261169,-0.26668596267700195,0.08965500444173813,-0.6623629927635193,0.021482089534401894,-0.35063815116882324]},"forgetBias":{"rows":20,"columns":1,"weights":[0,0,0,0,0,0,0,0,0,0,0,0,0,0,0,0,0,0,0,0]},"outputMatrix":{"rows":20,"columns":38,"weights":[-0.5455056428909302,0.19368155300617218,0.337979793548584,-0.28008925914764404,-1.0740243196487427,-0.519985556602478,-0.011238271370530128,-0.9126346707344055,-0.3436703681945801,-0.6806020736694336,-0.2565411329269409,0.36762773990631104,0.22591114044189453,1.0893601179122925,0.5219946503639221,-0.8032839298248291,0.13840226829051971,-0.3546612858772278,0.3007079064846039,-0.23034919798374176,0.8975020051002502,-0.21681161224842072,-0.0937788113951683,-0.17685256898403168,0.1365753412246704,-0.5240333676338196,-0.12533824145793915,-0.1408572942018509,-0.10293573141098022,-0.06677064299583435,-0.9599930047988892,-0.25678780674934387,-0.31159496307373047,0.09556074440479279,-0.37507009506225586,-0.6763661503791809,0.3976462781429291,0.10142076015472412,-0.07251311093568802,0.13025933504104614,0.287957102060318,-0.4183608293533325,-0.30946075916290283,-0.19342704117298126,0.33780333399772644,-0.24362923204898834,0.35598984360694885,-0.5621335506439209,-0.8083547949790955,-0.24199923872947693,0.2016552835702896,0.26940566301345825,0.47759366035461426,-0.722845733165741,1.069509506225586,-0.27584946155548096,0.2675988972187042,-0.42166486382484436,0.6045368313789368,0.13993491232395172,-0.11732503026723862,-0.3511236011981964,0.8654125928878784,0.056565556675195694,-0.44715508818626404,-0.46841567754745483,0.4416143298149109,-0.3424525260925293,-0.5796985626220703,-0.17371495068073273,0.17518194019794464,0.3804040551185608,0.1726924031972885,-0.7626954913139343,-0.3982176184654236,0.627557635307312,0.9093231558799744,0.5674381256103516,0.24668815732002258,-0.833458662033081,-0.37572917342185974,-0.1532510221004486,0.0502232164144516,-0.14491651952266693,0.33090853691101074,-0.9232134222984314,-1.0641595125198364,0.35532188415527344,-0.2164483368396759,0.7124725580215454,0.2033679038286209,-1.8046987056732178,0.5330333709716797,0.7504159808158875,-0.4111784100532532,-0.2657054364681244,0.5626394748687744,-0.013951975852251053,-0.15912464261054993,-0.2624088525772095,-0.025353534147143364,0.3684128224849701,-0.34138360619544983,-0.1750495731830597,0.1991056352853775,-0.19141043722629547,-1.132650375366211,0.06414029747247696,-0.5782910585403442,0.1423114687204361,0.7121299505233765,0.15676140785217285,-0.9882392287254333,0.40838196873664856,1.6070374250411987,-0.10746843367815018,0.6405732035636902,0.510070264339447,0.3037675619125366,-1.0439852476119995,0.148488849401474,0.37253057956695557,-0.388736754655838,-0.04278106242418289,-0.037885550409555435,0.47410497069358826,0.38506561517715454,-0.2820433974266052,-1.4936296939849854,-0.5541819334030151,0.2440020889043808,1.3600760698318481,0.2964384853839874,-0.17641837894916534,0.5693304538726807,-0.164584681391716,0.24331551790237427,-0.2507205903530121,-0.03489924222230911,-0.38867056369781494,-0.489270955324173,-0.13236437737941742,0.17987069487571716,-0.20274733006954193,0.7334132790565491,-0.17273317277431488,-0.16403698921203613,-0.10780069977045059,1.3199845552444458,0.0005550205823965371,0.2705313563346863,-0.5476526021957397,-0.23071861267089844,0.4525761604309082,0.6168328523635864,-0.5621474385261536,-0.475967675447464,-0.13022805750370026,-0.3032727539539337,-0.7729973793029785,0.26328393816947937,-0.7032139897346497,-0.6977284550666809,0.06533260643482208,-0.42809581756591797,0.5644181370735168,0.2453099936246872,-1.1247352361679077,0.3506722152233124,0.1408049613237381,-0.007611280772835016,-0.4393220841884613,1.0183390378952026,0.013990453444421291,-1.1657499074935913,-0.709359884262085,-0.004791977349668741,0.3776918351650238,-0.3493199646472931,-0.2195526361465454,0.21289829909801483,-0.5277504324913025,-0.7479044198989868,0.24376699328422546,-0.3367994725704193,0.09421677142381668,-0.010357371531426907,-0.295333594083786,-0.27525994181632996,0.8712494373321533,0.5885835289955139,0.39536088705062866,-0.455517441034317,-1.1123828887939453,0.013418518006801605,-1.4034255743026733,0.5691775679588318,0.6844006776809692,-0.6079138517379761,-0.08451949059963226,-0.5761432647705078,0.4684016704559326,1.3977128267288208,0.5460147857666016,0.19003687798976898,-0.4436972439289093,-0.6707444190979004,-0.47560614347457886,-1.4326972961425781,0.8952288031578064,0.15385548770427704,0.10236572474241257,1.2542681694030762,0.4427923858165741,-0.8445759415626526,-0.5659236311912537,-0.1063392385840416,-0.684343159198761,-0.6084415316581726,0.5172848105430603,0.44315531849861145,-0.7625237107276917,0.2753516435623169,-1.0593799352645874,-0.00358710833825171,0.4712490737438202,0.8324815034866333,-0.4955233335494995,1.0750890970230103,0.8275219798088074,0.2724805176258087,-1.1099300384521484,-0.06970880925655365,-0.7993767857551575,-0.2751486003398895,-0.30466893315315247,-0.9079194068908691,-0.4888182580471039,-0.8904029726982117,1.007446050643921,0.02852989174425602,0.247341588139534,-0.5352534651756287,-1.2493631839752197,0.23626312613487244,-0.32224681973457336,-0.38210129737854004,-0.2556372284889221,1.5981844663619995,0.1679956167936325,0.3163599371910095,0.04139679670333862,-0.22653211653232574,-0.23647752404212952,0.7754601240158081,-0.7571572065353394,-0.9760341048240662,0.19336974620819092,0.10558085888624191,-0.14592474699020386,0.4177479147911072,-0.6825511455535889,0.29179972410202026,0.4277958869934082,0.5633736252784729,-0.15130862593650818,0.6480829119682312,-0.31002163887023926,0.6576662063598633,-0.3635074496269226,0.9592059850692749,-0.448998361825943,-0.16538862884044647,0.2563103139400482,0.12962041795253754,0.13735710084438324,0.3750515580177307,0.01903339847922325,0.06296556442975998,-0.7412222623825073,-0.4561822712421417,0.15189649164676666,0.48702237010002136,1.1358188390731812,0.2843441069126129,-0.9092867374420166,0.12570641934871674,1.0139132738113403,0.075588159263134,-0.5826364755630493,-0.062007106840610504,0.13852067291736603,-0.507190465927124,-0.0996425673365593,0.1022324189543724,0.023413652554154396,0.19192081689834595,0.2712724208831787,1.025099754333496,0.14623507857322693,1.3089525699615479,-0.365858793258667,-0.6143264770507812,0.05101533979177475,0.17515841126441956,0.011930199339985847,0.2022610902786255,-0.7113103270530701,-0.06834984570741653,0.7808372974395752,-0.6214690804481506,-0.3218674659729004,0.38669154047966003,-0.2649845480918884,-0.5023269057273865,0.32179224491119385,-0.12455587089061737,0.35398516058921814,0.19826330244541168,-0.3873736262321472,0.03819640725851059,-0.26233217120170593,-0.10745010524988174,-0.20279912650585175,-0.2135179042816162,-0.9653313159942627,-0.8436022400856018,-0.7282845973968506,0.0512506365776062,0.6414713859558105,-0.463178426027298,-0.5098853707313538,0.21568700671195984,-0.24439740180969238,-0.7229958176612854,0.13284702599048615,-1.0946189165115356,0.26259487867355347,-0.32293468713760376,-0.2092077136039734,-0.5072709918022156,1.2181673049926758,1.2511807680130005,-0.1368270218372345,0.6351492404937744,-0.7896071672439575,0.12128464877605438,-0.8324211835861206,-0.2814934253692627,0.5501320958137512,-0.8931142091751099,-0.1412774920463562,-0.4433562755584717,0.9172075986862183,-0.022672446444630623,0.15611128509044647,-0.5184518694877625,-0.36121273040771484,-0.32129380106925964,0.46628135442733765,-1.2415744066238403,0.1604837328195572,0.7972027063369751,0.2226422131061554,-0.06777520477771759,0.02944193035364151,-1.1566352844238281,0.32248014211654663,0.6124008893966675,-0.005178382154554129,-0.6616911292076111,-0.07742910087108612,0.1004982516169548,-0.07680368423461914,0.8072116374969482,-0.8913406729698181,0.22827787697315216,0.8906471729278564,0.24184702336788177,-0.44153738021850586,0.12268813699483871,0.11946028470993042,1.5154578685760498,-0.7687760591506958,0.03245285525918007,-0.2783639132976532,-1.6401878595352173,-1.006407380104065,-0.44417575001716614,-0.6314738392829895,-0.2693310081958771,-0.22258435189723969,0.007807865273207426,0.3885466456413269,-0.16076286137104034,-0.6272158026695251,0.5712872743606567,0.3374421000480652,-0.022657424211502075,-1.0224372148513794,2.0655806064605713,0.15167199075222015,-1.080255150794983,-0.5191158652305603,-0.32947006821632385,0.41831955313682556,0.9055728316307068,-1.1293336153030396,-0.5071287751197815,-0.31389153003692627,-0.5333249568939209,0.21718069911003113,0.013536077924072742,-0.4004925489425659,0.24437348544597626,-0.31387388706207275,-0.898384153842926,0.4215391278266907,-0.41570428013801575,-0.040383026003837585,0.0010838505113497376,0.26924580335617065,-0.4230177402496338,-0.07719586789608002,-0.0937240868806839,-1.0828913450241089,0.3990560472011566,-0.04196566715836525,-0.31069567799568176,-0.6934819221496582,-0.08513324707746506,0.10320908576250076,0.16615994274616241,-0.27140989899635315,0.8413059115409851,-0.02105638198554516,0.6752308011054993,-0.5173275470733643,0.6518936157226562,0.2160569578409195,-0.5423776507377625,-0.44557875394821167,0.8705975413322449,0.08977910131216049,-0.8613499402999878,-0.4076121747493744,0.5830303430557251,-0.7053999900817871,-0.13392046093940735,-0.021439651027321815,0.16941657662391663,0.4144553542137146,0.19049130380153656,-1.046768307685852,-0.39429470896720886,0.18047016859054565,0.47099581360816956,0.8859755396842957,-0.13901162147521973,-0.34841179847717285,-0.5188374519348145,0.19098912179470062,-1.0667800903320312,-0.15578705072402954,-0.18034674227237701,-0.7418968677520752,-1.4009912014007568,0.25534752011299133,0.3209499418735504,0.4190787374973297,-0.5139358043670654,-0.5368707776069641,-0.6093340516090393,-0.9438585638999939,0.18404319882392883,0.04419396072626114,0.8865069150924683,-0.5701298713684082,-0.5567060112953186,-0.18039754033088684,-0.13085615634918213,0.2535969614982605,0.5547176003456116,0.8329699635505676,-0.5849951505661011,-0.10691650211811066,-0.15540483593940735,-0.22063763439655304,-0.6743175387382507,-0.4044807553291321,-0.8179219365119934,1.2015436887741089,0.9124049544334412,0.3872582018375397,-0.563774585723877,-0.05425501614809036,0.34181079268455505,-0.36208000779151917,-0.7078386545181274,0.013016381300985813,-1.0150516033172607,-1.1029698848724365,-0.1072339415550232,-0.6218164563179016,-0.49911874532699585,-0.01322152465581894,0.39325499534606934,0.6033775210380554,0.32380521297454834,-0.40777239203453064,0.47670724987983704,-0.6887744665145874,0.18866269290447235,-0.6367414593696594,1.7537137269973755,-0.5589777231216431,-0.9472570419311523,-0.47739899158477783,0.11420915275812149,0.34764620661735535,0.09599065035581589,-0.8805466294288635,0.08056025952100754,-0.2508034408092499,-0.5128066539764404,-0.4609612226486206,-0.07536729425191879,0.05639259144663811,-0.5023233890533447,-0.7909193634986877,0.6227600574493408,0.3059055507183075,-0.04898558929562569,0.4914064109325409,-0.35414183139801025,-0.5906298756599426,-0.5930364727973938,-0.2947257161140442,0.32325270771980286,0.24151697754859924,-0.35292309522628784,0.25688326358795166,-0.9263309836387634,0.9128836393356323,0.2716866731643677,0.038318585604429245,0.053710829466581345,-1.0488907098770142,-0.05076395720243454,-0.34676116704940796,-0.04221431165933609,0.647895097732544,0.5551527142524719,-0.42620792984962463,0.31485140323638916,-0.2710391879081726,-0.22173884510993958,0.3814862370491028,-0.04062731936573982,0.22136221826076508,-0.16274142265319824,0.0661856159567833,-0.3199983239173889,-0.49600347876548767,-0.7895756959915161,-0.9884955286979675,-0.3724994361400604,0.26911938190460205,0.560073733329773,0.029422374442219734,1.0487873554229736,-1.0720531940460205,0.3802170753479004,-1.1828594207763672,0.604039192199707,-0.2991141676902771,0.562505841255188,0.7559306025505066,-0.4970811903476715,-0.04829348623752594,0.44774937629699707,2.006387710571289,0.869350790977478,-0.324238657951355,-0.1635262817144394,0.2334577590227127,-0.21487604081630707,0.440213680267334,-0.5735414028167725,0.11072287708520889,-0.4629708528518677,0.5758082866668701,0.1309993863105774,0.01242915727198124,-0.4619221091270447,-0.1505003124475479,0.5801740288734436,0.7955352067947388,-0.38873353600502014,0.3430609703063965,-0.16694097220897675,-0.5579405426979065,0.043337784707546234,0.03532089293003082,-0.04377288743853569,0.6125606298446655,-0.26945173740386963,0.2867623567581177,0.7294564247131348,-0.009944775141775608,0.14606741070747375,-0.16531673073768616,0.11031407117843628,0.3509887754917145,-0.006597287952899933,0.8257457613945007,0.032419122755527496,0.6832740902900696,-0.28713735938072205,0.003136838087812066,0.9838401675224304,-0.18524803221225739,-0.3349067270755768,-0.09371273219585419,-0.12702058255672455,-0.5629891753196716,-0.01936316303908825,0.05688715726137161,-0.1440112292766571,-0.14330166578292847,0.3220090866088867,-0.12305238097906113,0.10703285038471222,0.29328489303588867,-0.2860763669013977,0.42908087372779846,0.10662035644054413,0.11273495852947235,0.3864368796348572,-0.10273095220327377,-0.41885894536972046,-0.059027303010225296,-0.5009198784828186,0.20440465211868286,0.11970823258161545,0.4187547266483307,0.29013997316360474,-0.9340676069259644,0.4947463572025299,-0.7417280673980713,0.6549531817436218,-0.11540744453668594,0.2511850893497467,0.05434301495552063,-0.16226384043693542,0.7597230076789856,0.08216279000043869,0.4135807156562805,0.5158582329750061,-0.5420642495155334,-0.3888317942619324,0.5367089509963989,0.3529931306838989,0.0828019306063652,0.3253956437110901,-0.1272769421339035,0.16291369497776031,2.1775827407836914,0.8913630843162537,-0.2478192299604416,-0.21820032596588135,0.023143604397773743,-0.29422059655189514,-0.3345943093299866,-0.46699464321136475,-0.12961184978485107,0.737223744392395,0.5460259914398193,1.9850760698318481,0.05201683193445206,0.5829100012779236,-0.8071908950805664,-0.40968430042266846,0.10753172636032104,-0.15276119112968445,1.021209955215454,0.9202560782432556,-0.4167581796646118,-0.12572437524795532,-1.1698503494262695,-0.6061469316482544,-0.7804403305053711,-0.4588784873485565,-0.9934569001197815,-0.9224209785461426,-0.6047572493553162,-0.21075479686260223,0.2277657389640808,0.12881158292293549,-0.6726904511451721,0.9716545343399048,-0.3293863832950592,-0.21713979542255402,-0.35550370812416077,1.474081039428711,0.26271969079971313,0.5008785128593445,-0.44483184814453125,0.34300437569618225,-0.021816018968820572,-0.131927028298378,-0.5717519521713257,-0.653692901134491,-0.413364440202713,0.29857227206230164,0.8513025045394897,0.6244022846221924,-0.7760308384895325,0.35548338294029236,0.06386698782444,-0.5716522932052612,-0.23549148440361023,1.0803853273391724,0.2946295738220215,0.28358539938926697,-0.36522752046585083,0.16351555287837982,-0.4039579927921295,-0.39174023270606995,-0.037374816834926605,0.1634986251592636,0.2940176725387573,-0.34213051199913025,0.189346045255661,0.10153654962778091,-0.0315764956176281,-1.2527722120285034,-0.3912217617034912,-0.17832589149475098,0.6937068700790405,-0.4871659576892853,0.17766445875167847,0.623197078704834,0.5214557647705078,-0.23930180072784424,-0.5024027824401855,-0.35040292143821716,0.5733394622802734,-0.23858650028705597,-0.15840893983840942,0.05913832038640976,-0.31367725133895874,0.5746643543243408,-0.08196552842855453,0.6045383810997009,-0.03689331188797951,1.4678596258163452,0.5327280163764954,-0.4136175811290741,0.5548257231712341]},"outputHidden":{"rows":20,"columns":20,"weights":[1.2300958633422852,0.6779621839523315,-0.7973737120628357,1.176506519317627,-0.7473543882369995,-1.0759013891220093,-1.0827763080596924,0.5263426303863525,-0.5337477922439575,1.5109468698501587,-1.0515631437301636,-0.7018181681632996,-0.3364304006099701,1.4424716234207153,1.370819091796875,-0.6985500454902649,0.47293251752853394,-0.4692172110080719,0.29438289999961853,0.635789155960083,0.2726793587207794,0.3444269299507141,1.4072678089141846,0.020453905686736107,-0.5133070945739746,-0.9271901845932007,-0.8637874722480774,1.1407325267791748,1.8021512031555176,0.0946655124425888,0.08639968931674957,0.9293538331985474,-1.2439528703689575,0.38141265511512756,1.0683956146240234,-2.250439167022705,0.12594574689865112,-0.18164752423763275,1.0452523231506348,0.2101610004901886,-0.5111640095710754,-0.6993606686592102,-0.5813601016998291,-0.7876928448677063,1.6300082206726074,-0.06631844490766525,0.07757917791604996,-0.07923418283462524,0.5748679041862488,-0.046185221523046494,1.4263901710510254,0.7956031560897827,-1.3817112445831299,-1.4169634580612183,-1.0942720174789429,0.001635122112929821,0.2535436451435089,-0.12397985905408859,-1.7587965726852417,-1.6385678052902222,-1.0169110298156738,0.5031231045722961,1.2194265127182007,1.4433581829071045,-0.16757997870445251,-0.4565861225128174,0.001729323179461062,-0.19154097139835358,-1.1205246448516846,0.2955555021762848,-2.1498451232910156,0.7823984026908875,-1.2093603610992432,0.4906776547431946,0.13401807844638824,-2.5094962120056152,-0.23113377392292023,0.12798473238945007,-0.7220851182937622,-1.04206120967865,0.7060961127281189,0.366170734167099,1.2452046871185303,-0.4289039969444275,-0.21260085701942444,-0.7657352089881897,-0.12021272629499435,-0.06921400129795074,1.984649658203125,-1.317002534866333,0.023610267788171768,-0.05225890502333641,-0.3411014974117279,0.6506790518760681,0.47911536693573,-1.9888789653778076,-0.48719942569732666,0.662930428981781,1.5106842517852783,-0.7780531644821167,-0.03222016990184784,0.6427508592605591,0.646297812461853,1.3005363941192627,-0.6360798478126526,1.5015705823898315,0.20277811586856842,0.27928227186203003,0.0615614615380764,-1.5180199146270752,-0.605963945388794,0.20178036391735077,-1.2253053188323975,-0.3082726001739502,-0.4496403634548187,-0.5981828570365906,-1.3683884143829346,-0.09211180359125137,-0.12379313260316849,-0.07926271110773087,0.4707293212413788,1.3985904455184937,1.0130126476287842,0.7000235915184021,-1.340625524520874,0.3394913077354431,0.6257103681564331,-0.5981590747833252,-1.37943434715271,-1.1825989484786987,-0.45877909660339355,-0.7124698162078857,-0.8157005906105042,1.2584238052368164,-0.44499844312667847,-1.0341219902038574,-0.6858221888542175,-0.49121183156967163,-0.2213960438966751,-0.3336164057254791,-2.3479037284851074,-0.6590181589126587,0.27987512946128845,-0.032868124544620514,0.4122174382209778,0.8721176385879517,-0.5497580766677856,1.4478609561920166,-0.6557997465133667,-0.7098482847213745,-0.08529921621084213,0.9835116863250732,-1.1662790775299072,-0.6051936149597168,-0.4500313997268677,-1.1377240419387817,-0.07716993242502213,-0.9758817553520203,0.5705873966217041,0.46954572200775146,0.8621582388877869,0.9178648591041565,-0.12183719128370285,1.0368274450302124,-0.4219430387020111,-1.0297305583953857,-0.9200915694236755,1.143263816833496,-1.6334906816482544,0.8333418369293213,-1.2905361652374268,-0.755406379699707,-0.023398082703351974,0.14011943340301514,-0.037748515605926514,-1.2766579389572144,1.1070510149002075,-1.5370807647705078,-1.1573998928070068,0.025634055957198143,0.41426557302474976,0.4395080804824829,0.046492841094732285,0.5659942030906677,-0.6443172097206116,1.2229094505310059,0.12396270036697388,0.9932494163513184,0.7457486391067505,-1.4776365756988525,-0.9565650224685669,0.401913046836853,-0.7112882137298584,0.743459165096283,-0.10142152011394501,-1.1072767972946167,-0.738613486289978,-0.8592778444290161,0.47579750418663025,0.4476527273654938,0.28178107738494873,-0.3162100613117218,-0.7180315256118774,-0.5437097549438477,0.2115713208913803,-0.32794445753097534,-0.5770425200462341,-0.8889759182929993,-1.7608847618103027,-0.049827270209789276,-2.678377866744995,0.32113805413246155,-0.10599479079246521,0.3907758593559265,0.6073331236839294,0.14556075632572174,-0.3853493928909302,0.9228166341781616,-0.7691766619682312,0.09662866592407227,1.0720233917236328,0.2166927605867386,1.2861697673797607,0.2673965096473694,-0.03997226431965828,-1.3030691146850586,0.6754316687583923,1.3957061767578125,0.7299278378486633,0.6551873087882996,1.4641133546829224,-0.566340982913971,-1.0216799974441528,0.7648612856864929,-0.006496333982795477,-2.8079726696014404,1.390403389930725,-1.0982577800750732,0.8671327829360962,1.204089879989624,-1.241614580154419,0.3969115912914276,-0.29018697142601013,-0.4277779459953308,-1.097901701927185,-1.7335631847381592,-1.569886565208435,-0.7844334840774536,0.9358922839164734,-0.39710119366645813,-1.0954045057296753,-0.05500457435846329,-0.32741644978523254,-0.6022124886512756,1.7645370960235596,1.1718649864196777,1.2739577293395996,1.126584768295288,0.7487716674804688,-1.14936363697052,0.7247598767280579,-0.00645412178710103,-0.968613862991333,0.9435073137283325,-0.2981947362422943,0.10920313745737076,-1.0433554649353027,-0.06462039053440094,-0.3176482319831848,-0.9359931945800781,-1.1618791818618774,-0.08777254074811935,1.2991998195648193,0.914757251739502,1.4140325784683228,-0.3865676820278168,-0.4472660422325134,-0.4838384985923767,0.6868276596069336,0.884604275226593,0.5105724930763245,1.7555978298187256,0.26098233461380005,1.0935059785842896,-1.049322485923767,0.5793145298957825,1.113432765007019,-1.1668083667755127,-0.46992889046669006,-0.06086643412709236,0.5870746374130249,-1.921334147453308,-0.02084675431251526,1.322793960571289,-1.8229920864105225,-0.3233931362628937,0.8014100790023804,0.5559379458427429,-0.510490357875824,-1.6545722484588623,-0.3892938792705536,-0.650372326374054,0.27436813712120056,0.4852752089500427,0.2997313141822815,-0.05071349814534187,-1.2508354187011719,0.9729540944099426,0.5646639466285706,-0.7927151918411255,-1.7868674993515015,0.9707139134407043,0.2668907344341278,0.3315928876399994,0.9097211956977844,-1.3166261911392212,0.5852126479148865,-1.136784553527832,0.8236453533172607,0.7697807550430298,1.010440468788147,1.0303815603256226,1.5015262365341187,1.4004663228988647,-0.5530591011047363,0.7639663815498352,1.231971263885498,0.8128296136856079,-0.5370903015136719,-1.2320985794067383,0.37728580832481384,-1.5772578716278076,-2.1103076934814453,0.8385928273200989,-1.6088955402374268,-0.6282223463058472,-0.056025244295597076,-0.8706610798835754,0.2614873945713043,-0.6359949111938477,-0.569936215877533,-0.3496556878089905,0.18314379453659058,-1.7804573774337769,-0.200428307056427,1.0866992473602295,-0.3156464397907257,-0.9852340817451477,-1.2338000535964966,-1.6854180097579956,-2.003509759902954,0.5909697413444519,0.03839346393942833,0.5222036242485046,-0.8665437698364258,-0.1508805900812149,-0.8083969950675964,0.5893636345863342,